{"sizes":[342,128,96,64,48,32,24,342],"layers":[{"0":{},"1":{},"2":{},"3":{},"4":{},"5":{},"6":{},"7":{},"8":{},"9":{},"10":{},"11":{},"12":{},"13":{},"14":{},"15":{},"16":{},"17":{},"18":{},"19":{},"20":{},"21":{},"22":{},"23":{},"24":{},"25":{},"26":{},"27":{},"28":{},"29":{},"30":{},"31":{},"32":{},"33":{},"34":{},"35":{},"36":{},"37":{},"38":{},"39":{},"40":{},"41":{},"42":{},"43":{},"44":{},"45":{},"46":{},"47":{},"48":{},"49":{},"50":{},"51":{},"52":{},"53":{},"54":{},"55":{},"56":{},"57":{},"58":{},"59":{},"60":{},"61":{},"62":{},"63":{},"64":{},"65":{},"66":{},"67":{},"68":{},"69":{},"70":{},"71":{},"72":{},"73":{},"74":{},"75":{},"76":{},"77":{},"78":{},"79":{},"80":{},"81":{},"82":{},"83":{},"84":{},"85":{},"86":{},"87":{},"88":{},"89":{},"90":{},"91":{},"92":{},"93":{},"94":{},"95":{},"96":{},"97":{},"98":{},"99":{},"100":{},"101":{},"102":{},"103":{},"104":{},"105":{},"106":{},"107":{},"108":{},"109":{},"110":{},"111":{},"112":{},"113":{},"114":{},"115":{},"116":{},"117":{},"118":{},"119":{},"120":{},"121":{},"122":{},"123":{},"124":{},"125":{},"126":{},"127":{},"128":{},"129":{},"130":{},"131":{},"132":{},"133":{},"134":{},"135":{},"136":{},"137":{},"138":{},"139":{},"140":{},"141":{},"142":{},"143":{},"144":{},"145":{},"146":{},"147":{},"148":{},"149":{},"150":{},"151":{},"152":{},"153":{},"154":{},"155":{},"156":{},"157":{},"158":{},"159":{},"160":{},"161":{},"162":{},"163":{},"164":{},"165":{},"166":{},"167":{},"168":{},"169":{},"170":{},"171":{},"172":{},"173":{},"174":{},"175":{},"176":{},"177":{},"178":{},"179":{},"180":{},"181":{},"182":{},"183":{},"184":{},"185":{},"186":{},"187":{},"188":{},"189":{},"190":{},"191":{},"192":{},"193":{},"194":{},"195":{},"196":{},"197":{},"198":{},"199":{},"200":{},"201":{},"202":{},"203":{},"204":{},"205":{},"206":{},"207":{},"208":{},"209":{},"210":{},"211":{},"212":{},"213":{},"214":{},"215":{},"216":{},"217":{},"218":{},"219":{},"220":{},"221":{},"222":{},"223":{},"224":{},"225":{},"226":{},"227":{},"228":{},"229":{},"230":{},"231":{},"232":{},"233":{},"234":{},"235":{},"236":{},"237":{},"238":{},"239":{},"240":{},"241":{},"242":{},"243":{},"244":{},"245":{},"246":{},"247":{},"248":{},"249":{},"250":{},"251":{},"252":{},"253":{},"254":{},"255":{},"256":{},"257":{},"258":{},"259":{},"260":{},"261":{},"262":{},"263":{},"264":{},"265":{},"266":{},"267":{},"268":{},"269":{},"270":{},"271":{},"272":{},"273":{},"274":{},"275":{},"276":{},"277":{},"278":{},"279":{},"280":{},"281":{},"282":{},"283":{},"284":{},"285":{},"286":{},"287":{},"288":{},"289":{},"290":{},"291":{},"292":{},"293":{},"294":{},"295":{},"296":{},"297":{},"298":{},"299":{},"300":{},"301":{},"302":{},"303":{},"304":{},"305":{},"306":{},"307":{},"308":{},"309":{},"310":{},"311":{},"312":{},"313":{},"314":{},"315":{},"316":{},"317":{},"318":{},"319":{},"320":{},"321":{},"322":{},"323":{},"324":{},"325":{},"326":{},"327":{},"328":{},"329":{},"330":{},"331":{},"332":{},"333":{},"334":{},"335":{},"336":{},"337":{},"338":{},"339":{},"340":{},"341":{}},{"0":{"bias":-0.15985779464244843,"weights":{"0":0.0568845272064209,"1":-0.17908784747123718,"2":0.17688967287540436,"3":-0.10624829679727554,"4":0.07879187911748886,"5":0.08263298124074936,"6":-0.1569499969482422,"7":-0.023685652762651443,"8":-0.08034161478281021,"9":0.10630855709314346,"10":-0.14618584513664246,"11":0.10435371845960617,"12":0.16149473190307617,"13":-0.14473986625671387,"14":-0.1058647632598877,"15":-0.12361873686313629,"16":-0.0979919284582138,"17":0.15899689495563507,"18":-0.08301535248756409,"19":0.06797017902135849,"20":-0.11489473283290863,"21":0.006016355473548174,"22":0.18515577912330627,"23":-0.009374949149787426,"24":-0.1716979742050171,"25":-0.10935915261507034,"26":-0.05407107248902321,"27":-0.06771134585142136,"28":-0.033004600554704666,"29":0.1058802604675293,"30":-0.108000248670578,"31":-0.19557324051856995,"32":0.1876530945301056,"33":0.09780026972293854,"34":0.017500342801213264,"35":0.04947841912508011,"36":0.13802413642406464,"37":-0.005487955641001463,"38":-0.019015319645404816,"39":0.15801668167114258,"40":0.14872223138809204,"41":0.023342547938227654,"42":-0.06326379626989365,"43":0.13606686890125275,"44":-0.12920066714286804,"45":0.05374571681022644,"46":0.08275924623012543,"47":0.0633358359336853,"48":-0.11611713469028473,"49":-0.08681298047304153,"50":-0.12083762884140015,"51":-0.024111364036798477,"52":0.057633109390735626,"53":0.09217531234025955,"54":0.06406644731760025,"55":0.03433974087238312,"56":0.16685599088668823,"57":-0.1571722775697708,"58":-0.161058709025383,"59":-0.08305872231721878,"60":-0.19712843000888824,"61":0.1371590495109558,"62":-0.17217208445072174,"63":0.11995162814855576,"64":-0.1504480242729187,"65":0.06957238912582397,"66":0.09414511173963547,"67":-0.17141643166542053,"68":0.17505647242069244,"69":0.01921350695192814,"70":-0.03823999688029289,"71":-0.07644221186637878,"72":-0.19379037618637085,"73":-0.16419704258441925,"74":0.14250025153160095,"75":0.0007328178035095334,"76":-0.1784699261188507,"77":0.1103179082274437,"78":-0.022836841642856598,"79":-0.10218445956707001,"80":-0.07043813914060593,"81":0.020610136911273003,"82":0.02036992646753788,"83":-0.15797901153564453,"84":-0.06456810235977173,"85":-0.15968278050422668,"86":-0.1072380319237709,"87":-0.026669487357139587,"88":-0.1695554554462433,"89":-0.05716647207736969,"90":-0.001677455147728324,"91":-0.06503479927778244,"92":-0.16960372030735016,"93":0.10099518299102783,"94":-0.02559591643512249,"95":-0.11568247526884079,"96":0.09404835104942322,"97":-0.16846029460430145,"98":0.12392313033342361,"99":0.07267419993877411,"100":-0.09716729819774628,"101":0.15071816742420197,"102":-0.15745383501052856,"103":0.014158126898109913,"104":0.07941217720508575,"105":-0.09201095253229141,"106":-0.04612104594707489,"107":-0.1254311501979828,"108":-0.033504050225019455,"109":-0.10688154399394989,"110":-0.10174091160297394,"111":-0.04987376183271408,"112":0.029243364930152893,"113":0.15317121148109436,"114":0.16588185727596283,"115":0.08206304162740707,"116":-0.1552378088235855,"117":0.01626797392964363,"118":-0.07287002354860306,"119":-0.16887012124061584,"120":-0.07370180636644363,"121":0.0049239518120884895,"122":0.1895395815372467,"123":0.02888593263924122,"124":-0.08241342753171921,"125":-0.07271669059991837,"126":-0.030965974554419518,"127":-0.11796689033508301,"128":0.17869418859481812,"129":0.16142261028289795,"130":-0.14071692526340485,"131":-0.11898398399353027,"132":-0.03809807449579239,"133":-0.04473504051566124,"134":0.03543851897120476,"135":-0.03207079693675041,"136":-0.010039114393293858,"137":0.14407286047935486,"138":-0.0338292196393013,"139":0.11517045646905899,"140":-0.17790156602859497,"141":0.07547309249639511,"142":0.1661042869091034,"143":-0.07041563838720322,"144":-0.03409310057759285,"145":0.1564164161682129,"146":-0.057977065443992615,"147":0.1447289139032364,"148":-0.16319163143634796,"149":0.10508918762207031,"150":-0.008454672060906887,"151":0.17986199259757996,"152":0.1740160584449768,"153":0.05189879983663559,"154":0.02519168145954609,"155":0.05007665604352951,"156":-0.06274288147687912,"157":-0.035380952060222626,"158":-0.15364760160446167,"159":0.00209779548458755,"160":-0.13213984668254852,"161":-0.08859176933765411,"162":-0.16997091472148895,"163":-0.1606682687997818,"164":-0.01711571216583252,"165":-0.1080995425581932,"166":0.06334733217954636,"167":-0.08187714219093323,"168":0.19742165505886078,"169":0.111692875623703,"170":0.19379471242427826,"171":0.039013464003801346,"172":-0.17144978046417236,"173":-0.08720036596059799,"174":0.002168696140870452,"175":0.002260793698951602,"176":-0.11611031740903854,"177":-0.013884460553526878,"178":-0.04442991688847542,"179":0.18797168135643005,"180":0.1816221922636032,"181":-0.11059297621250153,"182":-0.14237180352210999,"183":0.08794377744197845,"184":-0.1819000393152237,"185":-0.08984174579381943,"186":-0.013460577465593815,"187":-0.16340450942516327,"188":-0.199881911277771,"189":0.12172455340623856,"190":-0.10194473713636398,"191":-0.0018014166271314025,"192":0.14819541573524475,"193":-0.004729853477329016,"194":-0.02917071245610714,"195":0.11550239473581314,"196":-0.071210578083992,"197":0.12252218276262283,"198":-0.10124213248491287,"199":0.058764807879924774,"200":-0.19870926439762115,"201":0.12536947429180145,"202":-0.17225633561611176,"203":0.18829193711280823,"204":-0.017085952684283257,"205":-0.05730338767170906,"206":-0.1680067479610443,"207":0.11850102245807648,"208":0.022949090227484703,"209":-0.07986440509557724,"210":-0.08818471431732178,"211":-0.01328957173973322,"212":-0.03519805148243904,"213":-0.11102437227964401,"214":0.010771123692393303,"215":-0.09736490249633789,"216":-0.07097165286540985,"217":0.15918497741222382,"218":-0.07087536156177521,"219":-0.001248465385288,"220":0.022157985717058182,"221":0.06834293901920319,"222":0.17190732061862946,"223":0.008146226406097412,"224":0.1368754804134369,"225":-0.08926358073949814,"226":-0.05284014716744423,"227":0.01233475748449564,"228":0.18682962656021118,"229":0.013248632661998272,"230":-0.11539534479379654,"231":0.046830516308546066,"232":0.03697162866592407,"233":0.027169780805706978,"234":0.08950771391391754,"235":0.15524505078792572,"236":-0.007168763782829046,"237":0.08431264013051987,"238":0.07913152873516083,"239":0.1608622968196869,"240":0.013188974931836128,"241":0.13572467863559723,"242":0.03541387617588043,"243":0.049399130046367645,"244":-0.059060413390398026,"245":-0.11599164456129074,"246":0.04986724629998207,"247":-0.19594012200832367,"248":0.09858088940382004,"249":-0.15429335832595825,"250":0.10309812426567078,"251":0.17087747156620026,"252":-0.01502116397023201,"253":0.09085841476917267,"254":0.024088729172945023,"255":0.08674528449773788,"256":-0.05645020678639412,"257":-0.19525475800037384,"258":0.040464915335178375,"259":0.13844576478004456,"260":0.06319455802440643,"261":0.0272167157381773,"262":0.1342911273241043,"263":0.14406616985797882,"264":-0.11682571470737457,"265":0.13453008234500885,"266":-0.14044791460037231,"267":-0.18990002572536469,"268":-0.11351737380027771,"269":0.09134452790021896,"270":-0.04409480467438698,"271":0.04119349643588066,"272":-0.10128136724233627,"273":-0.09496355801820755,"274":0.04401811957359314,"275":-0.02279449999332428,"276":0.16991972923278809,"277":0.09229398518800735,"278":0.051692865788936615,"279":-0.011956530623137951,"280":0.02344175986945629,"281":-0.012658380903303623,"282":-0.08279601484537125,"283":0.16887229681015015,"284":0.11971389502286911,"285":-0.0820441022515297,"286":-0.0987374410033226,"287":-0.14154653251171112,"288":0.144667848944664,"289":0.06545025110244751,"290":0.1815091371536255,"291":-0.0718696117401123,"292":0.003259474877268076,"293":-0.01358205545693636,"294":-0.19055767357349396,"295":0.12657998502254486,"296":0.13044413924217224,"297":0.020299317315220833,"298":0.12391197681427002,"299":0.13073137402534485,"300":-0.1527300775051117,"301":0.14407487213611603,"302":-0.07600447535514832,"303":-0.08508621156215668,"304":-0.09297541528940201,"305":-0.1058264672756195,"306":0.07275804877281189,"307":0.03300686180591583,"308":-0.021929774433374405,"309":0.0874604880809784,"310":-0.03246571123600006,"311":0.10370545834302902,"312":0.00816851481795311,"313":-0.11572602391242981,"314":0.1644451767206192,"315":0.10593210160732269,"316":0.08401511609554291,"317":0.1378582864999771,"318":0.07845839858055115,"319":-0.03276977688074112,"320":0.11370056122541428,"321":0.11212335526943207,"322":-0.1421845406293869,"323":0.06579986959695816,"324":0.13149382174015045,"325":-0.10102327913045883,"326":-0.15406547486782074,"327":0.041674934327602386,"328":-0.14151661098003387,"329":0.13490207493305206,"330":-0.18489447236061096,"331":0.07321769744157791,"332":-0.05425214767456055,"333":0.16936174035072327,"334":-0.09742513298988342,"335":-0.16684719920158386,"336":0.13278591632843018,"337":-0.09796307235956192,"338":-0.1337219774723053,"339":0.0862564966082573,"340":0.13182489573955536,"341":-0.11064685136079788}},"1":{"bias":0.13600140810012817,"weights":{"0":-0.12613631784915924,"1":-0.027440430596470833,"2":-0.043414156883955,"3":-0.1576547622680664,"4":-0.12691320478916168,"5":-0.002836022526025772,"6":0.11693413555622101,"7":0.17351143062114716,"8":0.17712710797786713,"9":0.02120707370340824,"10":0.09375609457492828,"11":0.14805249869823456,"12":-0.14558281004428864,"13":0.10656920820474625,"14":0.19862861931324005,"15":0.057407550513744354,"16":-0.034370891749858856,"17":-0.1252826750278473,"18":0.15172389149665833,"19":-0.1946849375963211,"20":0.051768697798252106,"21":-0.020132312551140785,"22":-0.1263776272535324,"23":0.009622948244214058,"24":0.07221364974975586,"25":-0.028653036803007126,"26":-0.020340362563729286,"27":0.13566063344478607,"28":-0.15448114275932312,"29":-0.0027108807116746902,"30":-0.1071857288479805,"31":0.08532895892858505,"32":0.131041020154953,"33":0.00950965378433466,"34":-0.10443718731403351,"35":0.036759957671165466,"36":0.1393967866897583,"37":-0.18302735686302185,"38":0.1882103532552719,"39":0.18239502608776093,"40":0.07337501645088196,"41":0.0637752041220665,"42":-0.05157396197319031,"43":-0.15227730572223663,"44":0.06336870044469833,"45":-0.18798701465129852,"46":-0.003503855550661683,"47":0.08468712866306305,"48":-0.0831470713019371,"49":0.025719663128256798,"50":-0.09937207400798798,"51":-0.09074513614177704,"52":0.040856581181287766,"53":-0.032126057893037796,"54":0.02550780214369297,"55":-0.08221022039651871,"56":0.05266697332262993,"57":0.10210924595594406,"58":0.1572289764881134,"59":-0.09212787449359894,"60":0.0627630278468132,"61":-0.07852255553007126,"62":0.04809916019439697,"63":0.0109751857817173,"64":-0.012239151634275913,"65":0.10696116834878922,"66":-0.1449311375617981,"67":0.03947479650378227,"68":0.03183098882436752,"69":-0.1483076959848404,"70":0.17245198786258698,"71":0.13292232155799866,"72":0.17539605498313904,"73":0.05304114893078804,"74":0.1104942113161087,"75":-0.0016513299196958542,"76":-0.06756215542554855,"77":0.17282184958457947,"78":-0.13279487192630768,"79":0.1914825141429901,"80":-0.013363282196223736,"81":0.11051918566226959,"82":-0.08484058827161789,"83":-0.05197840556502342,"84":0.040906693786382675,"85":0.08579070121049881,"86":-0.07096564769744873,"87":-0.14251409471035004,"88":0.01385111827403307,"89":0.17386585474014282,"90":0.11475127935409546,"91":-0.1998809278011322,"92":0.01633511856198311,"93":-0.09161597490310669,"94":0.07798054069280624,"95":0.01586739905178547,"96":0.1138659417629242,"97":0.025605766102671623,"98":-0.006271975580602884,"99":-0.18333011865615845,"100":0.004117629490792751,"101":-0.11892958730459213,"102":0.1380157172679901,"103":0.1911367028951645,"104":-0.02206777036190033,"105":-0.12307144701480865,"106":0.143990159034729,"107":0.08071069419384003,"108":0.08231376856565475,"109":0.016656043007969856,"110":0.022963080555200577,"111":0.16089510917663574,"112":-0.09394583106040955,"113":-0.1502014696598053,"114":0.1661098748445511,"115":0.1507912129163742,"116":-0.05238054692745209,"117":0.1540449857711792,"118":-0.15711790323257446,"119":0.14331427216529846,"120":0.0955670103430748,"121":0.10037101060152054,"122":-0.02059306763112545,"123":0.11421696841716766,"124":0.12579438090324402,"125":0.03534539043903351,"126":0.04045247286558151,"127":-0.09921487420797348,"128":-0.0022269890177994967,"129":-0.1191803440451622,"130":0.17419326305389404,"131":0.16465264558792114,"132":0.19803719222545624,"133":0.08595865219831467,"134":-0.16094262897968292,"135":0.09677038341760635,"136":-0.1094302386045456,"137":-0.05057397484779358,"138":-0.04114890098571777,"139":0.10447034984827042,"140":0.17458626627922058,"141":-0.16354383528232574,"142":-0.14620286226272583,"143":0.0677427127957344,"144":-0.03204889968037605,"145":0.1614069938659668,"146":-0.06629138439893723,"147":-0.0982566848397255,"148":-0.11906785517930984,"149":0.044550128281116486,"150":-0.05095672979950905,"151":0.10299582779407501,"152":0.09498797357082367,"153":-0.11732662469148636,"154":0.011519101448357105,"155":-0.19854150712490082,"156":0.17833992838859558,"157":-0.14536777138710022,"158":0.161552295088768,"159":-0.15098153054714203,"160":-0.1525241881608963,"161":0.12005895376205444,"162":-0.045661892741918564,"163":0.05182814970612526,"164":-0.12670646607875824,"165":0.0011933355126529932,"166":-0.1765955686569214,"167":-0.13025304675102234,"168":0.18692244589328766,"169":-0.17833958566188812,"170":0.14453808963298798,"171":-0.17146913707256317,"172":0.19856873154640198,"173":-0.05291234329342842,"174":-0.18612425029277802,"175":-0.05376825109124184,"176":0.04506758600473404,"177":-0.02817646600306034,"178":0.19619694352149963,"179":-0.13746902346611023,"180":-0.1348761022090912,"181":0.03665793314576149,"182":0.1231284812092781,"183":-0.06432928889989853,"184":0.03599214926362038,"185":-0.028331391513347626,"186":-0.047871705144643784,"187":0.06977628171443939,"188":-0.11993579566478729,"189":-0.11315733939409256,"190":0.004340244457125664,"191":-0.10686547309160233,"192":-0.05645366385579109,"193":0.10622552037239075,"194":-0.021778540685772896,"195":0.01629077084362507,"196":0.11546655744314194,"197":0.011584986001253128,"198":-0.12819908559322357,"199":-0.04426928609609604,"200":-0.12346937507390976,"201":0.08917579054832458,"202":-0.10557562112808228,"203":-0.07744885236024857,"204":0.05373324453830719,"205":-0.02619040012359619,"206":-0.09664666652679443,"207":-0.030293405055999756,"208":-0.1358579695224762,"209":-0.06522607803344727,"210":-0.09493163973093033,"211":0.12160801142454147,"212":-0.003761484520509839,"213":0.12102749198675156,"214":-0.01108461432158947,"215":0.09783430397510529,"216":-0.044758908450603485,"217":0.17213517427444458,"218":0.03170857951045036,"219":0.14238999783992767,"220":-0.08594465255737305,"221":0.1962747722864151,"222":0.18331681191921234,"223":0.0462510846555233,"224":-0.16472403705120087,"225":0.058534152805805206,"226":-0.10978667438030243,"227":0.00921593140810728,"228":0.18331405520439148,"229":-0.06997184455394745,"230":0.05997662618756294,"231":0.024196313694119453,"232":0.13545456528663635,"233":0.04993699863553047,"234":-0.01441890373826027,"235":0.018202995881438255,"236":0.18504562973976135,"237":0.13336804509162903,"238":-0.18894843757152557,"239":0.05744769424200058,"240":-0.03828641027212143,"241":0.17742563784122467,"242":-0.008711722679436207,"243":0.056906089186668396,"244":-0.07679345458745956,"245":-0.16892996430397034,"246":-0.1654253751039505,"247":-0.19800829887390137,"248":0.012902718968689442,"249":0.16264359652996063,"250":0.17504718899726868,"251":-0.05210155248641968,"252":0.07627344876527786,"253":-0.011607523076236248,"254":-0.12894383072853088,"255":-0.12150529026985168,"256":-0.19802679121494293,"257":0.03167222440242767,"258":-0.026772642508149147,"259":0.10092984139919281,"260":0.03538867086172104,"261":0.13797438144683838,"262":-0.01393197849392891,"263":-0.18227002024650574,"264":0.19419944286346436,"265":-0.18018488585948944,"266":-0.0595715194940567,"267":-0.1713199019432068,"268":0.0027756113559007645,"269":0.16017648577690125,"270":-0.03433379903435707,"271":0.08122817426919937,"272":0.17037029564380646,"273":0.07406473159790039,"274":0.13950441777706146,"275":0.19291026890277863,"276":-0.16319821774959564,"277":-0.11844926327466965,"278":0.050429560244083405,"279":0.08309722691774368,"280":0.16022667288780212,"281":-0.07809504866600037,"282":0.14372636377811432,"283":0.1981596201658249,"284":-0.11327638477087021,"285":0.1730705350637436,"286":0.19154030084609985,"287":0.021100692451000214,"288":-0.09292630106210709,"289":-0.036990515887737274,"290":0.06207392364740372,"291":-0.061949655413627625,"292":-0.1444413661956787,"293":0.04335169121623039,"294":0.18647195398807526,"295":-0.12470419704914093,"296":0.12136401981115341,"297":-0.03696295991539955,"298":-0.1389816403388977,"299":0.1284569501876831,"300":0.11471692472696304,"301":0.04242913797497749,"302":0.19211705029010773,"303":0.12357519567012787,"304":-0.16296280920505524,"305":0.06144888326525688,"306":0.19267556071281433,"307":0.18492406606674194,"308":0.1850695163011551,"309":-0.040856581181287766,"310":-0.06674162298440933,"311":0.05758698284626007,"312":-0.1791679859161377,"313":-0.16439929604530334,"314":-0.08138903230428696,"315":0.082964226603508,"316":-0.09476672112941742,"317":-0.18855944275856018,"318":0.0021797071676701307,"319":-0.18857046961784363,"320":-0.06173015385866165,"321":-0.19128678739070892,"322":0.03047298453748226,"323":0.16151626408100128,"324":0.04307937249541283,"325":0.05715836584568024,"326":-0.012923465110361576,"327":0.10898247361183167,"328":-0.025936990976333618,"329":-0.13930241763591766,"330":-0.1932966560125351,"331":0.13159550726413727,"332":-0.0337132103741169,"333":-0.15457813441753387,"334":-0.1690492480993271,"335":0.08130162954330444,"336":0.1825876384973526,"337":-0.087057925760746,"338":-0.161086767911911,"339":-0.010903970338404179,"340":0.02960948646068573,"341":-0.05230862274765968}},"2":{"bias":0.16482694447040558,"weights":{"0":-0.19034233689308167,"1":0.07363977283239365,"2":-0.10805990546941757,"3":-0.19957463443279266,"4":-0.08039023727178574,"5":-0.15290477871894836,"6":0.013024847954511642,"7":0.1151541918516159,"8":-0.17418034374713898,"9":0.0993875190615654,"10":-0.04381152242422104,"11":0.08828918635845184,"12":-0.1777302324771881,"13":-0.1543813794851303,"14":0.06724809110164642,"15":-0.061817266047000885,"16":0.040193624794483185,"17":-0.1886725127696991,"18":-0.058887779712677,"19":0.00968589074909687,"20":-0.10709944367408752,"21":0.1421562284231186,"22":-0.11256790906190872,"23":0.07012344896793365,"24":0.15030530095100403,"25":-0.11536896228790283,"26":-0.06911685317754745,"27":-0.14571569859981537,"28":-0.011404750868678093,"29":-0.036259975284338,"30":0.19875021278858185,"31":-0.10269438475370407,"32":-0.08635127544403076,"33":-0.09943556040525436,"34":0.11280425637960434,"35":-0.18659332394599915,"36":-0.052660148590803146,"37":-0.15922287106513977,"38":-0.09241242706775665,"39":0.1663488745689392,"40":-0.10325758159160614,"41":-0.03128935024142265,"42":-0.04369000345468521,"43":-0.046090152114629745,"44":-0.08780159056186676,"45":-0.0827811062335968,"46":0.1452910304069519,"47":-0.09613915532827377,"48":0.08685704320669174,"49":0.03650533780455589,"50":-0.062406089156866074,"51":0.08883373439311981,"52":-0.02705814503133297,"53":-0.06807639449834824,"54":0.06208799406886101,"55":0.19689269363880157,"56":-0.12191732227802277,"57":-0.014137901365756989,"58":0.1699691116809845,"59":0.12120506167411804,"60":-0.16349610686302185,"61":0.061376024037599564,"62":-0.14494164288043976,"63":-0.14650608599185944,"64":0.09826592355966568,"65":-0.02835679240524769,"66":-0.08472592383623123,"67":0.18126457929611206,"68":-0.07016082108020782,"69":-0.12452632933855057,"70":-0.04665675014257431,"71":0.10500209778547287,"72":0.18541881442070007,"73":-0.07561462372541428,"74":-0.0711071565747261,"75":0.1213441789150238,"76":-0.040409088134765625,"77":-0.024895675480365753,"78":0.10033077746629715,"79":0.1214347630739212,"80":0.07709602266550064,"81":0.13868530094623566,"82":0.0808098241686821,"83":-0.023417944088578224,"84":0.08498356491327286,"85":-0.07736046612262726,"86":0.07412330061197281,"87":0.16797395050525665,"88":-0.04162058234214783,"89":-0.1021035835146904,"90":0.15218299627304077,"91":0.11248932033777237,"92":-0.10314416140317917,"93":-0.06926266103982925,"94":-0.055653516203165054,"95":-0.13964971899986267,"96":-0.14445184171199799,"97":0.03301265463232994,"98":-0.1784103959798813,"99":0.03228740766644478,"100":0.135479137301445,"101":0.13771899044513702,"102":-0.08249223977327347,"103":0.05275078862905502,"104":0.008267899975180626,"105":0.15916813910007477,"106":0.02347402274608612,"107":0.1940126270055771,"108":0.04687761887907982,"109":0.07538370043039322,"110":0.010977203957736492,"111":0.12438597530126572,"112":0.1692664921283722,"113":-0.016506275162100792,"114":-0.0823025330901146,"115":0.11604337394237518,"116":-0.02198529615998268,"117":0.10892240703105927,"118":0.09610815346240997,"119":0.059006255120038986,"120":0.0299118310213089,"121":-0.011225876398384571,"122":0.16342154145240784,"123":0.15063507854938507,"124":0.07022812962532043,"125":-0.016553867608308792,"126":0.019925657659769058,"127":-0.09171172231435776,"128":0.15343151986598969,"129":-0.08374619483947754,"130":0.029742633923888206,"131":-0.014277949929237366,"132":-0.10105982422828674,"133":0.0960773453116417,"134":0.045855432748794556,"135":0.017342742532491684,"136":-0.021102838218212128,"137":-0.030756494030356407,"138":-0.09601329267024994,"139":-0.1084713414311409,"140":0.1591990739107132,"141":0.10899849236011505,"142":0.1402115374803543,"143":-0.10215100646018982,"144":-0.17847609519958496,"145":-0.008623491041362286,"146":-0.048082441091537476,"147":0.06445387005805969,"148":-0.06486192345619202,"149":0.18128550052642822,"150":-0.11646144092082977,"151":-0.012485040351748466,"152":0.052237506955862045,"153":0.08980614691972733,"154":0.09392894059419632,"155":-0.017604615539312363,"156":0.11980362236499786,"157":0.09044275432825089,"158":0.07769221067428589,"159":-0.13945049047470093,"160":-0.1707819253206253,"161":0.13861025869846344,"162":-0.08777348697185516,"163":-0.1841367930173874,"164":-0.1158769354224205,"165":-0.020664725452661514,"166":0.015250531025230885,"167":-0.043243758380413055,"168":-0.0065553863532841206,"169":0.004778700415045023,"170":0.024225544184446335,"171":-0.07816022634506226,"172":-0.061173077672719955,"173":-0.057044826447963715,"174":-0.15050996840000153,"175":0.0249842070043087,"176":0.19409625232219696,"177":0.1653629094362259,"178":-0.17370390892028809,"179":0.043916624039411545,"180":-0.12443481385707855,"181":-0.13512203097343445,"182":0.14485801756381989,"183":-0.014306330122053623,"184":-0.011927136220037937,"185":-0.11347974836826324,"186":-0.03314441815018654,"187":-0.10421179234981537,"188":-0.1776471883058548,"189":0.053766705095767975,"190":0.025978004559874535,"191":-0.16543874144554138,"192":0.19473692774772644,"193":-0.0278363935649395,"194":0.12239343672990799,"195":0.11887247115373611,"196":-0.08406971395015717,"197":-0.1590951681137085,"198":0.16646455228328705,"199":0.1348656266927719,"200":0.10576067119836807,"201":-0.03469422087073326,"202":0.10399405658245087,"203":0.046436890959739685,"204":0.10341857373714447,"205":-0.19355037808418274,"206":-0.053064364939928055,"207":0.07548946887254715,"208":0.18010826408863068,"209":-0.13916343450546265,"210":0.08913743495941162,"211":0.024882320314645767,"212":-0.18317149579524994,"213":0.1506277173757553,"214":0.07467104494571686,"215":-0.18683050572872162,"216":0.1730802208185196,"217":-0.11907125264406204,"218":-0.03262239694595337,"219":0.037204496562480927,"220":0.1768307238817215,"221":0.025803515687584877,"222":0.037715911865234375,"223":-0.15135788917541504,"224":0.10593253374099731,"225":-0.0968334823846817,"226":-0.1066572293639183,"227":0.18492792546749115,"228":0.04214846342802048,"229":-0.10964382439851761,"230":-0.044982779771089554,"231":0.006320041138678789,"232":-0.1992179900407791,"233":-0.06050797179341316,"234":-0.12095535546541214,"235":-0.12478306889533997,"236":0.1956518143415451,"237":0.008108772337436676,"238":-0.1636054366827011,"239":0.09062238782644272,"240":0.006133135873824358,"241":0.13047966361045837,"242":0.1465194970369339,"243":-0.04608672112226486,"244":-0.14972645044326782,"245":-0.15625527501106262,"246":0.16256751120090485,"247":-0.14467264711856842,"248":0.16166482865810394,"249":-0.12550735473632812,"250":-0.16958828270435333,"251":-0.05913379788398743,"252":-0.1005748063325882,"253":-0.06950639933347702,"254":-0.1464998573064804,"255":0.10840485990047455,"256":0.18148426711559296,"257":-0.09088466316461563,"258":0.08563385158777237,"259":-0.12201477587223053,"260":0.17124725878238678,"261":-0.04399696737527847,"262":0.03111019730567932,"263":-0.005209419876337051,"264":0.019123047590255737,"265":-0.11888547986745834,"266":0.1353425681591034,"267":-0.1782698631286621,"268":0.18213191628456116,"269":-0.17174144089221954,"270":-0.027599595487117767,"271":-0.022449156269431114,"272":0.06641042977571487,"273":0.042945586144924164,"274":-0.05070469528436661,"275":0.13896523416042328,"276":-0.16521890461444855,"277":-0.01929583214223385,"278":-0.08035573363304138,"279":0.13739581406116486,"280":-0.03235044702887535,"281":-0.022084912285208702,"282":0.02408640831708908,"283":0.14221273362636566,"284":-0.13110259175300598,"285":0.1390341818332672,"286":-0.12712521851062775,"287":0.11191440373659134,"288":0.07088638842105865,"289":0.04652881622314453,"290":0.08306258171796799,"291":-0.10347289592027664,"292":-0.054693564772605896,"293":0.16219036281108856,"294":0.08358287811279297,"295":0.14972761273384094,"296":-0.00742163322865963,"297":0.1584247201681137,"298":-0.1842990666627884,"299":0.18594175577163696,"300":-0.13275443017482758,"301":-0.03715630993247032,"302":0.09689245373010635,"303":0.00872294045984745,"304":0.15432453155517578,"305":0.17353403568267822,"306":0.15754283964633942,"307":-0.11423824727535248,"308":-0.15359216928482056,"309":-0.11418838053941727,"310":-0.10841445624828339,"311":0.03824742138385773,"312":0.01740604266524315,"313":0.08885229378938675,"314":0.1134333610534668,"315":0.19814078509807587,"316":-0.08169219642877579,"317":0.01021095272153616,"318":0.17210441827774048,"319":-0.17234809696674347,"320":0.0339273177087307,"321":-0.0831155851483345,"322":-0.13474078476428986,"323":-0.10382969677448273,"324":-0.07868393510580063,"325":0.10103190690279007,"326":0.18233764171600342,"327":0.16885417699813843,"328":-0.03353331238031387,"329":-0.07336021214723587,"330":-0.02912929840385914,"331":-0.04195035248994827,"332":-0.0013854758581146598,"333":0.12695512175559998,"334":0.18390485644340515,"335":0.07654435932636261,"336":-0.018838634714484215,"337":-0.04664084315299988,"338":0.14889806509017944,"339":0.1584065556526184,"340":-0.12395033985376358,"341":-0.011831334792077541}},"3":{"bias":-0.0525914765894413,"weights":{"0":-0.16441261768341064,"1":-0.05825299397110939,"2":-0.04210866987705231,"3":0.14665044844150543,"4":-0.16039444506168365,"5":-0.045628756284713745,"6":-0.08170236647129059,"7":0.02092469483613968,"8":0.15079957246780396,"9":-0.15607793629169464,"10":0.19841894507408142,"11":0.06801263242959976,"12":0.030820978805422783,"13":-0.11721973121166229,"14":-0.022264106199145317,"15":0.10744130611419678,"16":-0.06262045353651047,"17":-0.019978338852524757,"18":0.11230906844139099,"19":0.17344094812870026,"20":-0.07182949036359787,"21":0.07076197117567062,"22":0.05969745293259621,"23":0.15948514640331268,"24":0.04506634920835495,"25":0.038308996707201004,"26":0.13727983832359314,"27":0.11674869060516357,"28":0.13806089758872986,"29":0.11389612406492233,"30":-0.018473701551556587,"31":0.03772164136171341,"32":-0.15826177597045898,"33":0.07337155938148499,"34":-0.09778585284948349,"35":-0.11840787529945374,"36":-0.11207712441682816,"37":-0.028664523735642433,"38":-0.175965815782547,"39":0.15805795788764954,"40":-0.13039828836917877,"41":0.13491006195545197,"42":0.07803904265165329,"43":0.08600234240293503,"44":-0.04351409152150154,"45":0.038018859922885895,"46":-0.18349047005176544,"47":0.06174679845571518,"48":0.11138894408941269,"49":0.02710079960525036,"50":-0.05211295932531357,"51":-0.13984885811805725,"52":-0.1912163943052292,"53":0.08304918557405472,"54":0.03155551478266716,"55":-0.07133624702692032,"56":0.17484332621097565,"57":0.00617791386321187,"58":-0.05687354877591133,"59":0.1767442375421524,"60":-0.16222597658634186,"61":-0.0343029722571373,"62":-0.19930827617645264,"63":-0.0865873470902443,"64":0.1516651064157486,"65":-0.1452583521604538,"66":0.015672314912080765,"67":-0.1350553333759308,"68":0.19908253848552704,"69":-0.06960785388946533,"70":0.06845106929540634,"71":-0.19476452469825745,"72":0.15037542581558228,"73":0.19954466819763184,"74":-0.09387458115816116,"75":0.12311317771673203,"76":-0.10096494108438492,"77":0.07623864710330963,"78":-0.07060962170362473,"79":-0.15847158432006836,"80":-0.042671289294958115,"81":-0.033856816589832306,"82":0.012676502577960491,"83":-0.03505265340209007,"84":-0.09818880259990692,"85":0.14288243651390076,"86":-0.06716819852590561,"87":0.18319275975227356,"88":-0.016497237607836723,"89":-0.12047892808914185,"90":-0.12130067497491837,"91":-0.022553231567144394,"92":0.0036692980211228132,"93":-0.009637091308832169,"94":0.05715262144804001,"95":-0.08316075056791306,"96":-0.023841112852096558,"97":0.17693667113780975,"98":-0.1927190124988556,"99":-0.022172093391418457,"100":0.08902563154697418,"101":-0.02832762524485588,"102":-0.0900854766368866,"103":-0.17162078619003296,"104":0.1582133173942566,"105":-0.0385422445833683,"106":-0.16313979029655457,"107":0.011535070836544037,"108":0.011632828041911125,"109":0.044918376952409744,"110":-0.06719139218330383,"111":0.10306501388549805,"112":0.027733422815799713,"113":-0.06656660884618759,"114":-0.14306683838367462,"115":-0.1123700961470604,"116":-0.17125053703784943,"117":0.10886669158935547,"118":0.14510264992713928,"119":0.06724966317415237,"120":0.07837513834238052,"121":-0.06206263229250908,"122":0.03245756775140762,"123":-0.11126313358545303,"124":-0.04426294192671776,"125":0.057456064969301224,"126":-0.017884511500597,"127":-0.0750008225440979,"128":0.01812208630144596,"129":0.08333179354667664,"130":-0.10098490864038467,"131":-0.12334214895963669,"132":0.1077180728316307,"133":0.022564148530364037,"134":-0.014664447866380215,"135":-0.06896816939115524,"136":-0.05291435867547989,"137":0.15001077950000763,"138":0.16350136697292328,"139":-0.0652642548084259,"140":-0.012692843563854694,"141":0.19277596473693848,"142":-0.07979036867618561,"143":0.1589546799659729,"144":0.1635941118001938,"145":-0.039909057319164276,"146":0.03813057392835617,"147":-0.14646416902542114,"148":-0.05737462639808655,"149":0.038994260132312775,"150":0.10478992760181427,"151":0.09614390879869461,"152":0.04861096665263176,"153":-0.11058692634105682,"154":0.14113643765449524,"155":0.10095897316932678,"156":0.022325687110424042,"157":-0.1341123878955841,"158":-0.06580686569213867,"159":-0.13836129009723663,"160":-0.19600121676921844,"161":-0.07451784610748291,"162":0.0731741413474083,"163":0.0010551210725679994,"164":0.109475277364254,"165":-0.017634810879826546,"166":-0.18227726221084595,"167":-0.00799784529954195,"168":0.08373779058456421,"169":0.07671210914850235,"170":-0.1499335765838623,"171":0.16363593935966492,"172":0.056937430053949356,"173":0.10179808735847473,"174":0.10721567273139954,"175":-0.1003480777144432,"176":0.10518418252468109,"177":-0.12505598366260529,"178":-0.0647103413939476,"179":0.08688339591026306,"180":0.0669635459780693,"181":0.07124408334493637,"182":0.0572747066617012,"183":0.009817722253501415,"184":0.023728402331471443,"185":0.09683211892843246,"186":-0.1380537897348404,"187":-0.19446521997451782,"188":-0.01132996752858162,"189":0.16005705296993256,"190":0.07451982796192169,"191":0.07682766765356064,"192":0.13971227407455444,"193":0.11704619228839874,"194":-0.10599807649850845,"195":0.11837979406118393,"196":-0.037622615694999695,"197":-0.19572602212429047,"198":-0.0728667601943016,"199":-0.018965572118759155,"200":0.16833899915218353,"201":0.12423264235258102,"202":-0.13311366736888885,"203":0.020676203072071075,"204":-0.10135790705680847,"205":0.025360876694321632,"206":-0.16269904375076294,"207":-0.16978971660137177,"208":-0.02134087309241295,"209":-0.09302176535129547,"210":0.13612088561058044,"211":0.06786704808473587,"212":0.1107293963432312,"213":-0.17755277454853058,"214":0.15914316475391388,"215":0.05892125517129898,"216":0.004599416628479958,"217":-0.05043499544262886,"218":0.19228015840053558,"219":0.1351146399974823,"220":0.19219344854354858,"221":0.15520887076854706,"222":-0.18252262473106384,"223":-0.08140475302934647,"224":-0.1917385458946228,"225":-0.16003774106502533,"226":0.012672594748437405,"227":0.08052974194288254,"228":0.12003974616527557,"229":-0.14361202716827393,"230":-0.07188107073307037,"231":-0.16049812734127045,"232":0.002230252604931593,"233":-0.03472118824720383,"234":-0.17010731995105743,"235":0.12627309560775757,"236":-0.14742976427078247,"237":-0.06096884608268738,"238":0.03903474286198616,"239":-0.11161842197179794,"240":-0.1190648302435875,"241":0.05659082904458046,"242":-0.15752661228179932,"243":0.10702211409807205,"244":0.15045496821403503,"245":-0.16893123090267181,"246":0.08236771821975708,"247":-0.1537167727947235,"248":-0.15904122591018677,"249":-0.14767827093601227,"250":-0.1347188949584961,"251":0.1595432311296463,"252":-0.008541788905858994,"253":0.03222308307886124,"254":0.06914257258176804,"255":-0.061038706451654434,"256":0.18094854056835175,"257":-0.08047018200159073,"258":-0.10340102016925812,"259":-0.0976744070649147,"260":-0.028561921790242195,"261":-0.04815467447042465,"262":0.033202819526195526,"263":-0.15437225997447968,"264":-0.03739972785115242,"265":-0.027643674984574318,"266":-0.13954448699951172,"267":0.17530378699302673,"268":0.14611363410949707,"269":-0.032674919813871384,"270":-0.1048351526260376,"271":0.0879458412528038,"272":0.024883702397346497,"273":0.04997184872627258,"274":-0.11342711001634598,"275":0.11087481677532196,"276":0.03684770688414574,"277":-0.14870698750019073,"278":-0.15858356654644012,"279":-0.013446888886392117,"280":0.014179510995745659,"281":-0.0704076886177063,"282":-0.06349208205938339,"283":0.12499631941318512,"284":0.16687418520450592,"285":0.013053878210484982,"286":-0.05496629327535629,"287":0.19578105211257935,"288":0.06823492050170898,"289":-0.11222155392169952,"290":0.1534763127565384,"291":-0.13263455033302307,"292":0.11020393669605255,"293":0.1725234091281891,"294":-0.1091763973236084,"295":0.19129182398319244,"296":0.13276338577270508,"297":-0.07690971344709396,"298":-0.1496940702199936,"299":0.02870035171508789,"300":-0.02748165838420391,"301":-0.19032469391822815,"302":0.040411897003650665,"303":0.1267968863248825,"304":-0.11063125729560852,"305":-0.1645289957523346,"306":-0.19847731292247772,"307":0.07484172284603119,"308":-0.004275568760931492,"309":0.17494192719459534,"310":0.007394794840365648,"311":-0.16250765323638916,"312":-0.05229903385043144,"313":-0.09966578334569931,"314":0.19553551077842712,"315":0.0008514518849551678,"316":0.05761164799332619,"317":-0.1529136598110199,"318":0.175975501537323,"319":-0.18239900469779968,"320":0.033540889620780945,"321":0.16770632565021515,"322":0.05343741551041603,"323":-0.15704049170017242,"324":0.10141675174236298,"325":-0.0073333438485860825,"326":0.0630253329873085,"327":0.12011008709669113,"328":0.011339087039232254,"329":0.045360319316387177,"330":-0.1445990949869156,"331":-0.009255515411496162,"332":-0.1892673373222351,"333":0.007988404482603073,"334":0.1558057963848114,"335":-0.007745403330773115,"336":-0.0880979597568512,"337":0.11630082130432129,"338":0.1723349243402481,"339":-0.09657652676105499,"340":0.14972560107707977,"341":-0.03490104898810387}},"4":{"bias":0.12696672976016998,"weights":{"0":0.05441818758845329,"1":0.16722527146339417,"2":-0.13491609692573547,"3":0.11743169277906418,"4":-0.15359559655189514,"5":0.19087210297584534,"6":0.11122928559780121,"7":0.09306132793426514,"8":0.12957651913166046,"9":-0.011192032136023045,"10":0.04826103150844574,"11":0.08219019323587418,"12":-0.14274896681308746,"13":-0.12169791758060455,"14":-0.17974472045898438,"15":-0.17174528539180756,"16":0.05650080367922783,"17":0.08983412384986877,"18":0.10232000052928925,"19":0.1326683908700943,"20":0.07982023805379868,"21":-0.04682130739092827,"22":0.0661550760269165,"23":-0.06737543642520905,"24":0.09572645276784897,"25":0.03105156309902668,"26":0.005155929364264011,"27":-0.1241530328989029,"28":0.19304996728897095,"29":0.13109737634658813,"30":-0.18666881322860718,"31":0.06885268539190292,"32":-0.19014351069927216,"33":-0.1220017597079277,"34":0.11087565124034882,"35":-0.19109348952770233,"36":-0.16663089394569397,"37":-0.06967171281576157,"38":-0.19246099889278412,"39":-0.0023921888787299395,"40":-0.13810165226459503,"41":0.0968853011727333,"42":-0.056039392948150635,"43":-0.1282535195350647,"44":-0.10554789006710052,"45":0.14113348722457886,"46":-0.05018669366836548,"47":0.13891679048538208,"48":-0.14293648302555084,"49":-0.15046364068984985,"50":-0.08587324619293213,"51":-0.13414356112480164,"52":0.08498433977365494,"53":0.03611359745264053,"54":-0.02641032636165619,"55":-0.06940356642007828,"56":-0.05821412056684494,"57":0.17774562537670135,"58":0.034730684012174606,"59":-0.05080713331699371,"60":-0.0625312477350235,"61":-0.04171226546168327,"62":-0.18528412282466888,"63":0.14426563680171967,"64":0.10504475235939026,"65":0.08249261975288391,"66":0.02216806262731552,"67":0.11282186210155487,"68":-0.1970745027065277,"69":-0.13967446982860565,"70":-0.09682276844978333,"71":0.08916033804416656,"72":0.1974439173936844,"73":-0.11485603451728821,"74":0.12685853242874146,"75":-0.17098350822925568,"76":0.00878759752959013,"77":0.11153952032327652,"78":0.12946179509162903,"79":0.1937849074602127,"80":0.0292458888143301,"81":-0.14914096891880035,"82":0.12212340533733368,"83":-0.05030042305588722,"84":0.06903816759586334,"85":-0.16661125421524048,"86":0.10390107333660126,"87":0.15213705599308014,"88":-0.05273134633898735,"89":0.04683919623494148,"90":0.06528555601835251,"91":-0.03238065913319588,"92":-0.04452621191740036,"93":-0.13724732398986816,"94":-0.11155751347541809,"95":-0.10669711977243423,"96":-0.14693583548069,"97":0.0338551327586174,"98":0.05137162655591965,"99":0.02752288058400154,"100":0.13169249892234802,"101":-0.0048404112458229065,"102":-0.019367748871445656,"103":-0.07885068655014038,"104":-0.031178176403045654,"105":-0.1692347228527069,"106":-0.0779474675655365,"107":0.17557528614997864,"108":-0.0007805463392287493,"109":-0.04780016094446182,"110":0.10370249301195145,"111":-0.06103925779461861,"112":-0.011537319049239159,"113":-0.05260145664215088,"114":-0.18087920546531677,"115":-0.1429549902677536,"116":-0.12929753959178925,"117":0.17898444831371307,"118":0.07652904838323593,"119":-0.02683195285499096,"120":0.17731991410255432,"121":0.09232588857412338,"122":0.09352149814367294,"123":0.1816098690032959,"124":-0.017141856253147125,"125":0.008838416077196598,"126":0.012342331930994987,"127":0.023060014471411705,"128":-0.17178668081760406,"129":0.10879761725664139,"130":-0.1975843459367752,"131":0.12772054970264435,"132":-0.12193899601697922,"133":0.012490101158618927,"134":-0.19133450090885162,"135":0.0032465457916259766,"136":0.1560334414243698,"137":0.07044786214828491,"138":0.03959549963474274,"139":-0.19374284148216248,"140":0.07111569494009018,"141":0.036111652851104736,"142":-0.1658019870519638,"143":0.14958560466766357,"144":-0.00009390307968715206,"145":-0.12266199290752411,"146":-0.0922001376748085,"147":-0.06925439089536667,"148":0.19762858748435974,"149":0.1731477826833725,"150":0.09067123383283615,"151":0.07940196245908737,"152":0.1372334361076355,"153":-0.18159273266792297,"154":-0.08467575907707214,"155":0.026162663474678993,"156":0.1449631154537201,"157":0.09946899116039276,"158":-0.17728416621685028,"159":0.128545343875885,"160":-0.17262382805347443,"161":-0.14952579140663147,"162":-0.15405577421188354,"163":0.18130330741405487,"164":0.19397568702697754,"165":0.06248396262526512,"166":-0.14165112376213074,"167":-0.048279959708452225,"168":-0.03894174098968506,"169":-0.1713763028383255,"170":0.01796274073421955,"171":0.16664692759513855,"172":-0.1395854353904724,"173":-0.177978053689003,"174":0.156918466091156,"175":-0.03959014266729355,"176":0.08853894472122192,"177":0.16272474825382233,"178":-0.13248459994792938,"179":0.07645437121391296,"180":-0.03953414037823677,"181":0.17447052896022797,"182":0.1144593358039856,"183":0.15559981763362885,"184":-0.07843764126300812,"185":0.10335347056388855,"186":0.11159893125295639,"187":0.1562941074371338,"188":-0.15679863095283508,"189":-0.00921246875077486,"190":-0.18443052470684052,"191":0.19884169101715088,"192":0.03509761765599251,"193":0.13287189602851868,"194":0.09424953162670135,"195":-0.05190371349453926,"196":0.026204844936728477,"197":-0.021821416914463043,"198":-0.0954393595457077,"199":0.17917713522911072,"200":0.011948262341320515,"201":-0.18365943431854248,"202":0.011983873322606087,"203":0.1703430414199829,"204":0.1426365226507187,"205":-0.10775122046470642,"206":-0.15445145964622498,"207":0.1151343286037445,"208":0.15122424066066742,"209":0.1942436546087265,"210":0.07580259442329407,"211":-0.13438557088375092,"212":0.14016605913639069,"213":0.10437756776809692,"214":0.19760411977767944,"215":-0.003805291373282671,"216":-0.17285878956317902,"217":-0.019896309822797775,"218":-0.1460913121700287,"219":-0.10541656613349915,"220":-0.040273167192935944,"221":-0.08452548831701279,"222":-0.11410775035619736,"223":-0.13462279736995697,"224":0.07412245869636536,"225":-0.08532925695180893,"226":-0.05826498195528984,"227":0.187935009598732,"228":-0.19885337352752686,"229":0.1361711174249649,"230":0.1239514872431755,"231":0.15213032066822052,"232":0.03285778686404228,"233":0.14737311005592346,"234":0.009044304490089417,"235":-0.05211000517010689,"236":-0.03091670386493206,"237":0.18101710081100464,"238":0.1637100875377655,"239":-0.09870303422212601,"240":0.06299171596765518,"241":-0.010631534270942211,"242":-0.09671179950237274,"243":0.06503546237945557,"244":0.17231278121471405,"245":-0.159551739692688,"246":-0.09581252187490463,"247":-0.0218945425003767,"248":0.15011362731456757,"249":0.1069406196475029,"250":-0.10749258100986481,"251":0.06702148169279099,"252":0.10638653486967087,"253":0.006493850611150265,"254":-0.1699034571647644,"255":0.09037290513515472,"256":-0.15512186288833618,"257":-0.1382600963115692,"258":-0.11011290550231934,"259":0.037896085530519485,"260":0.1714470535516739,"261":0.07385481894016266,"262":-0.07527832686901093,"263":0.11015549302101135,"264":-0.1387130469083786,"265":-0.08457190543413162,"266":-0.12639597058296204,"267":-0.05619395896792412,"268":0.09030026197433472,"269":-0.14893051981925964,"270":0.11992213129997253,"271":-0.14764653146266937,"272":-0.19909453392028809,"273":0.17635363340377808,"274":-0.12392622232437134,"275":0.09620745480060577,"276":0.04408293217420578,"277":0.17498959600925446,"278":0.17851178348064423,"279":0.12211284041404724,"280":-0.13947749137878418,"281":-0.08628279715776443,"282":0.11031787842512131,"283":0.0940769761800766,"284":0.1813252717256546,"285":0.05675654113292694,"286":-0.005383674055337906,"287":-0.16763272881507874,"288":-0.19470970332622528,"289":-0.07416947931051254,"290":-0.15048350393772125,"291":-0.11507489532232285,"292":-0.16881141066551208,"293":-0.012312490493059158,"294":0.16643421351909637,"295":-0.19343359768390656,"296":0.0690421536564827,"297":0.19694989919662476,"298":-0.06797141581773758,"299":0.05027957260608673,"300":0.14239779114723206,"301":0.07448219507932663,"302":-0.11477445065975189,"303":-0.07436419278383255,"304":-0.15471374988555908,"305":0.07085971534252167,"306":0.062105610966682434,"307":-0.06939719617366791,"308":0.11635700613260269,"309":0.08705969899892807,"310":-0.13594044744968414,"311":-0.02662997506558895,"312":0.17443817853927612,"313":-0.013160898350179195,"314":0.08848877251148224,"315":-0.17459917068481445,"316":-0.1058984026312828,"317":0.11005639284849167,"318":-0.11072899401187897,"319":-0.055498331785202026,"320":-0.14547595381736755,"321":-0.09598573297262192,"322":0.04307055473327637,"323":-0.07877861708402634,"324":0.10642881691455841,"325":-0.050054557621479034,"326":0.12086774408817291,"327":0.15217973291873932,"328":0.04899962991476059,"329":-0.12336495518684387,"330":0.03908434882760048,"331":0.048187077045440674,"332":0.05572131276130676,"333":0.05256393551826477,"334":-0.03251655399799347,"335":0.09004175662994385,"336":0.13221153616905212,"337":-0.057861506938934326,"338":-0.16620633006095886,"339":0.13638904690742493,"340":0.12625513970851898,"341":-0.1313275694847107}},"5":{"bias":-0.16952089965343475,"weights":{"0":-0.04309593886137009,"1":0.14517901837825775,"2":0.11240742355585098,"3":-0.018578365445137024,"4":0.14064037799835205,"5":-0.12699659168720245,"6":-0.11559845507144928,"7":-0.18056106567382812,"8":0.0889514684677124,"9":0.1263374537229538,"10":0.10544417798519135,"11":0.18428057432174683,"12":-0.03981951251626015,"13":0.03440208360552788,"14":0.10773368924856186,"15":0.004199400544166565,"16":-0.042802851647138596,"17":-0.0961894690990448,"18":0.1168261244893074,"19":0.00030636132578365505,"20":0.08538250625133514,"21":0.17176808416843414,"22":0.05908479541540146,"23":0.05612511187791824,"24":-0.14336933195590973,"25":-0.12521816790103912,"26":0.012799716554582119,"27":0.1331382542848587,"28":0.18090064823627472,"29":-0.007818061858415604,"30":0.016942454501986504,"31":0.05481106415390968,"32":-0.09483993798494339,"33":0.061294808983802795,"34":-0.028740618377923965,"35":0.023362793028354645,"36":0.14770552515983582,"37":-0.11162546277046204,"38":-0.042237211018800735,"39":-0.005148500204086304,"40":0.18752770125865936,"41":0.011733818799257278,"42":0.12157834321260452,"43":0.03167824074625969,"44":0.09959759563207626,"45":0.015516072511672974,"46":-0.0757739320397377,"47":-0.17337566614151,"48":0.19212931394577026,"49":0.16730937361717224,"50":-0.08019998669624329,"51":-0.02583666890859604,"52":0.07256391644477844,"53":0.19997641444206238,"54":0.031040513888001442,"55":0.14911311864852905,"56":0.1181442067027092,"57":-0.19080758094787598,"58":-0.13608169555664062,"59":0.02170446515083313,"60":0.018184097483754158,"61":-0.15174293518066406,"62":0.0958324521780014,"63":0.000542552035767585,"64":0.05916321650147438,"65":0.0681169331073761,"66":0.1290067583322525,"67":0.05112156271934509,"68":-0.082220159471035,"69":-0.07987000048160553,"70":-0.1180783212184906,"71":0.062390416860580444,"72":-0.19583141803741455,"73":-0.14617526531219482,"74":-0.06653759628534317,"75":0.06615008413791656,"76":0.16428938508033752,"77":0.05085238814353943,"78":0.0572318509221077,"79":-0.03734462708234787,"80":0.06802251189947128,"81":0.1714489609003067,"82":0.1536911427974701,"83":0.004580106120556593,"84":-0.18086789548397064,"85":-0.06101299077272415,"86":0.13556793332099915,"87":-0.17762672901153564,"88":-0.07615930587053299,"89":0.0836099162697792,"90":-0.17745982110500336,"91":0.19424983859062195,"92":0.158915713429451,"93":0.1342310756444931,"94":-0.16402167081832886,"95":-0.15803514420986176,"96":-0.011117675341665745,"97":0.021848341450095177,"98":-0.0708567276597023,"99":0.16907693445682526,"100":-0.1061660498380661,"101":-0.025867903605103493,"102":-0.17575520277023315,"103":0.017779823392629623,"104":0.17700617015361786,"105":-0.10488675534725189,"106":0.14206042885780334,"107":-0.10559540241956711,"108":0.0019114210736006498,"109":0.06969228386878967,"110":-0.1307528018951416,"111":0.1945505440235138,"112":0.1780329793691635,"113":-0.16978324949741364,"114":-0.05870606005191803,"115":0.11337621510028839,"116":0.0165410079061985,"117":-0.07098731398582458,"118":0.0447763092815876,"119":-0.08551814407110214,"120":-0.08028189837932587,"121":0.031977299600839615,"122":0.09230219572782516,"123":-0.15253061056137085,"124":0.08010607212781906,"125":0.021400218829512596,"126":-0.1289074420928955,"127":0.15032020211219788,"128":-0.16769742965698242,"129":0.035135574638843536,"130":-0.12240301817655563,"131":0.030786046758294106,"132":-0.11241772025823593,"133":-0.024351604282855988,"134":-0.11858494579792023,"135":0.0908503532409668,"136":0.15469743311405182,"137":-0.1205410286784172,"138":-0.19652396440505981,"139":0.05910056084394455,"140":-0.15908381342887878,"141":-0.15251581370830536,"142":0.09836748987436295,"143":-0.021795282140374184,"144":-0.14200106263160706,"145":0.03451808542013168,"146":-0.029609913006424904,"147":0.09701298177242279,"148":-0.04634133726358414,"149":0.19130221009254456,"150":-0.10455133020877838,"151":0.11260858178138733,"152":-0.003052018117159605,"153":0.01457988005131483,"154":-0.13841396570205688,"155":-0.0868041068315506,"156":0.1263890117406845,"157":0.19268137216567993,"158":-0.18714317679405212,"159":0.1898043155670166,"160":-0.10205107927322388,"161":-0.15816707909107208,"162":0.14730048179626465,"163":0.05423600226640701,"164":-0.19320480525493622,"165":0.17402397096157074,"166":0.15272092819213867,"167":-0.12290962785482407,"168":-0.06574060767889023,"169":0.16528837382793427,"170":0.05852857232093811,"171":-0.1262492537498474,"172":-0.131601020693779,"173":-0.13923129439353943,"174":-0.14858239889144897,"175":0.05195468291640282,"176":0.0059480671770870686,"177":0.13145184516906738,"178":-0.14626558125019073,"179":-0.1507575511932373,"180":0.0819263681769371,"181":0.10264655947685242,"182":0.07996858656406403,"183":-0.0703146904706955,"184":-0.0424051508307457,"185":-0.19297216832637787,"186":-0.12209700047969818,"187":0.1591939777135849,"188":0.13529634475708008,"189":-0.027356846258044243,"190":0.024856291711330414,"191":-0.17749953269958496,"192":0.05599818751215935,"193":0.16404134035110474,"194":-0.11145666241645813,"195":0.14785552024841309,"196":0.0009237003978341818,"197":-0.18006260693073273,"198":-0.18919683992862701,"199":-0.16515907645225525,"200":-0.01745784841477871,"201":-0.11304629594087601,"202":0.07222547382116318,"203":0.18203727900981903,"204":-0.13099610805511475,"205":0.02713867649435997,"206":0.08477535098791122,"207":0.12371372431516647,"208":0.08122428506612778,"209":0.06505469232797623,"210":0.1377202421426773,"211":0.12299542129039764,"212":-0.11468848586082458,"213":0.1625051498413086,"214":-0.09634773433208466,"215":-0.19417087733745575,"216":0.031943123787641525,"217":0.10217482596635818,"218":-0.037370096892118454,"219":0.0037725528236478567,"220":-0.0437636598944664,"221":0.13970352709293365,"222":0.1699734777212143,"223":-0.16482596099376678,"224":0.04941641911864281,"225":-0.045029882341623306,"226":0.18008899688720703,"227":0.09922248125076294,"228":-0.17845509946346283,"229":-0.13273684680461884,"230":-0.13490629196166992,"231":0.1754772663116455,"232":-0.0008137869299389422,"233":0.17898790538311005,"234":0.11354529112577438,"235":0.08103907108306885,"236":-0.03953317925333977,"237":0.11753478646278381,"238":-0.034474145621061325,"239":-0.1789233386516571,"240":0.14198817312717438,"241":0.17541061341762543,"242":-0.02041390724480152,"243":-0.00649843318387866,"244":-0.1697159707546234,"245":0.0016963439993560314,"246":-0.06027742475271225,"247":0.14002323150634766,"248":-0.17876951396465302,"249":0.010478416457772255,"250":-0.06517048180103302,"251":0.09469883143901825,"252":-0.18519173562526703,"253":-0.12362048774957657,"254":-0.09504296630620956,"255":0.15394918620586395,"256":-0.15695883333683014,"257":-0.10696965456008911,"258":-0.09776485711336136,"259":-0.1441955417394638,"260":-0.11804617196321487,"261":-0.03404219076037407,"262":-0.18802808225154877,"263":-0.13622984290122986,"264":-0.07225177437067032,"265":0.06502045691013336,"266":-0.05114514008164406,"267":-0.16290751099586487,"268":-0.15727928280830383,"269":0.00260770577006042,"270":-0.0969967469573021,"271":-0.1653180718421936,"272":-0.18745186924934387,"273":-0.0007962045492604375,"274":0.03213592618703842,"275":0.07572104036808014,"276":-0.10314545035362244,"277":-0.042859748005867004,"278":-0.125852569937706,"279":0.11846496909856796,"280":-0.09408093988895416,"281":-0.16945092380046844,"282":0.1269041746854782,"283":-0.0569717139005661,"284":0.03599296137690544,"285":-0.15409041941165924,"286":-0.06605463474988937,"287":0.017248524352908134,"288":0.05658218637108803,"289":-0.14225129783153534,"290":0.18769600987434387,"291":-0.08399569243192673,"292":-0.08817777782678604,"293":-0.04838240519165993,"294":-0.053330350667238235,"295":0.19420908391475677,"296":0.1981060653924942,"297":-0.07392061501741409,"298":-0.15604111552238464,"299":0.03025197423994541,"300":0.08886495977640152,"301":-0.005830843932926655,"302":0.13372254371643066,"303":-0.11991722136735916,"304":-0.1487809717655182,"305":-0.1252339780330658,"306":0.16177959740161896,"307":-0.12293195724487305,"308":0.1596118062734604,"309":0.0566757433116436,"310":0.017131175845861435,"311":0.0032430016435682774,"312":0.18964824080467224,"313":0.11230196058750153,"314":0.19850386679172516,"315":-0.04318183287978172,"316":0.027857353910803795,"317":-0.025723857805132866,"318":0.19200190901756287,"319":0.024449925869703293,"320":-0.09618448466062546,"321":-0.1175575777888298,"322":-0.1884581297636032,"323":0.07407630234956741,"324":0.06582622230052948,"325":-0.11770609766244888,"326":-0.019088367000222206,"327":0.07230138033628464,"328":-0.11954212188720703,"329":-0.1934238076210022,"330":0.05079801380634308,"331":-0.08539652824401855,"332":-0.005321427248418331,"333":0.019373593851923943,"334":0.13492923974990845,"335":0.025250853970646858,"336":0.11812308430671692,"337":0.17981189489364624,"338":-0.025174995884299278,"339":0.12862616777420044,"340":0.10306598991155624,"341":-0.11352963000535965}},"6":{"bias":-0.0667002946138382,"weights":{"0":0.1180984154343605,"1":-0.015209171921014786,"2":-0.058512404561042786,"3":0.15093903243541718,"4":0.06535249203443527,"5":-0.08204994350671768,"6":0.07574325799942017,"7":0.0031386124901473522,"8":-0.004435047507286072,"9":-0.15497274696826935,"10":-0.11249664425849915,"11":0.05623285844922066,"12":-0.0786406621336937,"13":0.06811553239822388,"14":0.11641088128089905,"15":-0.06236547231674194,"16":-0.048787880688905716,"17":-0.1340009719133377,"18":0.19111712276935577,"19":0.1765950322151184,"20":0.1477430760860443,"21":0.14977969229221344,"22":0.06107795983552933,"23":-0.004995726980268955,"24":0.1513669639825821,"25":-0.1294245421886444,"26":-0.12238664925098419,"27":0.18721170723438263,"28":-0.06398303061723709,"29":0.14321081340312958,"30":-0.17175132036209106,"31":0.12785692512989044,"32":-0.19710423052310944,"33":-0.05468017980456352,"34":-0.0020276482682675123,"35":0.12154502421617508,"36":-0.00849062018096447,"37":0.13380996882915497,"38":-0.16825614869594574,"39":-0.07230603694915771,"40":-0.14994600415229797,"41":-0.15726082026958466,"42":-0.11640877276659012,"43":-0.09804251790046692,"44":0.006766411941498518,"45":-0.18925824761390686,"46":-0.11044537276029587,"47":0.06963494420051575,"48":-0.006952861323952675,"49":0.1994304209947586,"50":-0.1265203207731247,"51":0.12791652977466583,"52":-0.1973719596862793,"53":0.16078439354896545,"54":0.057215895503759384,"55":0.14033964276313782,"56":-0.1570766270160675,"57":-0.13650007545948029,"58":0.1102406457066536,"59":-0.030376458540558815,"60":0.06464923918247223,"61":-0.13863533735275269,"62":0.12093096971511841,"63":-0.15403032302856445,"64":0.1969253569841385,"65":0.04455559328198433,"66":0.02970094420015812,"67":-0.14420680701732635,"68":0.010508785955607891,"69":-0.13664843142032623,"70":-0.07972092926502228,"71":0.17688730359077454,"72":-0.002413379494100809,"73":-0.15894433856010437,"74":-0.06590566039085388,"75":0.16801336407661438,"76":0.05215144902467728,"77":0.15270903706550598,"78":-0.05676373839378357,"79":-0.12958118319511414,"80":-0.1714915633201599,"81":-0.0861065611243248,"82":-0.18563193082809448,"83":0.02391432784497738,"84":0.17452867329120636,"85":-0.1833627074956894,"86":-0.05481072887778282,"87":-0.16531561315059662,"88":0.09823012351989746,"89":0.19101248681545258,"90":-0.1791384071111679,"91":0.00000531513205714873,"92":-0.09043703973293304,"93":0.0314650684595108,"94":0.1627049595117569,"95":-0.023117873817682266,"96":-0.06005588918924332,"97":0.18840937316417694,"98":-0.17046457529067993,"99":0.13994021713733673,"100":-0.1507706195116043,"101":0.18883830308914185,"102":0.07218562811613083,"103":0.17953036725521088,"104":-0.15182790160179138,"105":0.16785016655921936,"106":-0.19464845955371857,"107":0.17961755394935608,"108":0.17717519402503967,"109":0.09300025552511215,"110":0.18444432318210602,"111":-0.15867026150226593,"112":-0.040094923228025436,"113":-0.011822366155683994,"114":-0.16479869186878204,"115":-0.13066710531711578,"116":-0.06672012805938721,"117":0.011582660488784313,"118":0.1919512301683426,"119":0.0934380441904068,"120":0.05081438273191452,"121":-0.001006346195936203,"122":0.17147503793239594,"123":0.024343114346265793,"124":-0.03460245579481125,"125":-0.025645680725574493,"126":-0.07038643956184387,"127":0.16409581899642944,"128":-0.06620464473962784,"129":0.19399228692054749,"130":0.09431715309619904,"131":-0.09748158603906631,"132":0.16637583076953888,"133":0.008891257457435131,"134":-0.16097529232501984,"135":-0.1894199103116989,"136":0.005577927455306053,"137":-0.09829059988260269,"138":0.09052874892950058,"139":-0.07848850637674332,"140":-0.10036264359951019,"141":0.07591518014669418,"142":0.0646434873342514,"143":0.013043716549873352,"144":0.07095296680927277,"145":0.15622761845588684,"146":0.17930473387241364,"147":0.0018448143964633346,"148":0.09014042466878891,"149":0.17450331151485443,"150":-0.0506192184984684,"151":0.024109184741973877,"152":0.1605880856513977,"153":-0.111778624355793,"154":-0.1322883665561676,"155":0.18969044089317322,"156":0.1745653748512268,"157":0.028996968641877174,"158":0.005843400489538908,"159":-0.060084566473960876,"160":-0.052594780921936035,"161":-0.17555221915245056,"162":-0.1982395052909851,"163":-0.1619604527950287,"164":0.1729007214307785,"165":-0.056225936859846115,"166":-0.07500715553760529,"167":-0.14597342908382416,"168":0.10982836037874222,"169":0.08318387717008591,"170":-0.039780184626579285,"171":-0.08319961279630661,"172":-0.08377106487751007,"173":0.04568493738770485,"174":0.1824118196964264,"175":-0.05284646898508072,"176":-0.19225284457206726,"177":0.1922703981399536,"178":-0.04989578202366829,"179":0.15196649730205536,"180":0.020167401060461998,"181":0.12917707860469818,"182":0.19663484394550323,"183":-0.13423247635364532,"184":-0.02479216270148754,"185":0.18583692610263824,"186":0.0646761953830719,"187":0.12414219975471497,"188":-0.014499112963676453,"189":-0.16733258962631226,"190":0.06753629446029663,"191":-0.10505326092243195,"192":0.10001327097415924,"193":0.02155744843184948,"194":0.05332660302519798,"195":-0.19617928564548492,"196":0.10218579322099686,"197":-0.18029990792274475,"198":-0.007828821428120136,"199":-0.1757296323776245,"200":0.12322038412094116,"201":0.009939350187778473,"202":-0.1668279469013214,"203":0.16443756222724915,"204":-0.17866730690002441,"205":-0.06449156999588013,"206":0.014768162742257118,"207":-0.11227408051490784,"208":-0.15032993257045746,"209":-0.09610932320356369,"210":-0.061795424669981,"211":0.09231632202863693,"212":-0.0731993317604065,"213":0.10184960812330246,"214":-0.1834680289030075,"215":-0.13371606171131134,"216":0.16983184218406677,"217":-0.1451779007911682,"218":-0.11793933063745499,"219":0.04192855581641197,"220":-0.0017845241818577051,"221":-0.0036137772258371115,"222":-0.1454034298658371,"223":-0.1721286177635193,"224":-0.15697063505649567,"225":-0.16148114204406738,"226":0.148715540766716,"227":-0.17104144394397736,"228":0.19213877618312836,"229":0.0848342627286911,"230":0.10697600990533829,"231":-0.14069531857967377,"232":0.1971849948167801,"233":0.17254282534122467,"234":0.07309001684188843,"235":0.1770411878824234,"236":-0.14702661335468292,"237":-0.08577906340360641,"238":-0.07763299345970154,"239":-0.1824880987405777,"240":-0.0038422478828579187,"241":-0.11056946218013763,"242":-0.12153937667608261,"243":0.07830103486776352,"244":0.03755846619606018,"245":-0.18486857414245605,"246":0.19612257182598114,"247":0.09487248957157135,"248":-0.038217250257730484,"249":0.03089991956949234,"250":0.06690408289432526,"251":-0.15398506820201874,"252":-0.0015634819865226746,"253":0.016120154410600662,"254":-0.16129879653453827,"255":0.05166884511709213,"256":0.06690230965614319,"257":-0.14361824095249176,"258":-0.011876584962010384,"259":0.041608989238739014,"260":0.10648694634437561,"261":0.11576326191425323,"262":0.16545066237449646,"263":0.0050494493916630745,"264":0.18008744716644287,"265":-0.17343686521053314,"266":0.0669594407081604,"267":0.054624609649181366,"268":-0.1503380686044693,"269":-0.13093344867229462,"270":-0.011616692878305912,"271":0.07022962719202042,"272":-0.0422794483602047,"273":-0.08625686168670654,"274":0.15759815275669098,"275":0.006004867143929005,"276":0.12740547955036163,"277":-0.026290928944945335,"278":-0.10868299007415771,"279":-0.08876390010118484,"280":0.07133058458566666,"281":-0.1782267689704895,"282":-0.13757440447807312,"283":0.11259173601865768,"284":-0.06999317556619644,"285":0.08488303422927856,"286":0.14596782624721527,"287":-0.13371290266513824,"288":0.18326039612293243,"289":-0.027764858677983284,"290":0.178268164396286,"291":-0.0008308463729918003,"292":0.18007370829582214,"293":0.0657527968287468,"294":0.0611145980656147,"295":-0.07544926553964615,"296":0.15683498978614807,"297":0.1804007738828659,"298":-0.17696890234947205,"299":0.07281447947025299,"300":-0.07973781228065491,"301":-0.03161313384771347,"302":0.0896628201007843,"303":-0.1869020015001297,"304":-0.10121753066778183,"305":-0.08199155330657959,"306":0.14231179654598236,"307":-0.18843123316764832,"308":-0.12007913738489151,"309":0.1790153831243515,"310":-0.02741157077252865,"311":0.1167910248041153,"312":0.0656931921839714,"313":-0.14839127659797668,"314":0.12121502310037613,"315":-0.11820074170827866,"316":-0.11223410069942474,"317":0.14996883273124695,"318":0.17686505615711212,"319":0.02414282038807869,"320":0.03594178706407547,"321":-0.127998486161232,"322":0.13022057712078094,"323":0.06422869116067886,"324":0.13210605084896088,"325":0.12434977293014526,"326":-0.07415412366390228,"327":-0.03766493871808052,"328":0.01611565239727497,"329":0.04231102392077446,"330":0.09098556637763977,"331":0.07084982842206955,"332":0.14217279851436615,"333":-0.04878849536180496,"334":0.0026720634195953608,"335":0.16812382638454437,"336":0.014933676458895206,"337":0.17153652012348175,"338":-0.17178557813167572,"339":0.17456088960170746,"340":0.03887569531798363,"341":0.192062646150589}},"7":{"bias":-0.02101908251643181,"weights":{"0":0.06823419779539108,"1":-0.05587444081902504,"2":-0.0711464062333107,"3":-0.07465580105781555,"4":-0.05566170811653137,"5":-0.15571941435337067,"6":0.13056276738643646,"7":0.15494729578495026,"8":0.09150727093219757,"9":0.12941329181194305,"10":0.19684937596321106,"11":-0.1313457489013672,"12":-0.13517889380455017,"13":0.011450792662799358,"14":0.19716058671474457,"15":-0.18758733570575714,"16":0.039598435163497925,"17":-0.1307842880487442,"18":0.041327960789203644,"19":0.04131828248500824,"20":0.13718323409557343,"21":-0.11268379539251328,"22":-0.05128899961709976,"23":0.1846386194229126,"24":-0.1841118037700653,"25":0.07028161734342575,"26":0.11087261885404587,"27":0.01563662849366665,"28":0.18447217345237732,"29":-0.10056827962398529,"30":-0.011240401305258274,"31":-0.18251413106918335,"32":0.16513574123382568,"33":-0.11835552006959915,"34":0.058239053934812546,"35":-0.07340799272060394,"36":0.1161537766456604,"37":0.1446046531200409,"38":0.16394245624542236,"39":-0.037602007389068604,"40":0.19451729953289032,"41":0.08321071416139603,"42":0.16060127317905426,"43":0.029474390670657158,"44":-0.14673788845539093,"45":0.04432369023561478,"46":0.18786241114139557,"47":-0.14571216702461243,"48":0.11180010437965393,"49":0.11432328820228577,"50":0.1032942682504654,"51":0.10221032053232193,"52":0.15007346868515015,"53":-0.14229750633239746,"54":-0.01672164537012577,"55":-0.18122786283493042,"56":0.08668383955955505,"57":0.0550687350332737,"58":-0.07251528650522232,"59":-0.13346010446548462,"60":0.11298221349716187,"61":0.11502314358949661,"62":0.14683236181735992,"63":-0.028055550530552864,"64":0.02413994073867798,"65":-0.13170619308948517,"66":-0.010091216303408146,"67":0.07841925323009491,"68":-0.06782810389995575,"69":0.09391338378190994,"70":0.12750202417373657,"71":0.01592220738530159,"72":-0.10745508968830109,"73":0.030848843976855278,"74":-0.09192996472120285,"75":-0.00768643943592906,"76":0.15503644943237305,"77":-0.020606616511940956,"78":0.09684664011001587,"79":0.013616527430713177,"80":0.09230378270149231,"81":0.14060820639133453,"82":-0.17597424983978271,"83":0.12984652817249298,"84":0.16160084307193756,"85":-0.03214481472969055,"86":0.13934871554374695,"87":-0.05596647411584854,"88":-0.13903729617595673,"89":-0.06795529276132584,"90":-0.1961015909910202,"91":-0.1275753229856491,"92":-0.13761253654956818,"93":-0.16176919639110565,"94":0.15809564292430878,"95":-0.18864984810352325,"96":-0.02261321246623993,"97":0.043669745326042175,"98":0.06054045259952545,"99":0.19499967992305756,"100":0.05818428844213486,"101":0.14218786358833313,"102":0.19738006591796875,"103":-0.1477283388376236,"104":0.13926048576831818,"105":-0.04552137479186058,"106":0.18007542192935944,"107":-0.09520593285560608,"108":-0.08082995563745499,"109":-0.0012327461736276746,"110":-0.1210482120513916,"111":-0.17743586003780365,"112":-0.08296268433332443,"113":-0.15797680616378784,"114":0.03320888429880142,"115":-0.04660110920667648,"116":-0.024841951206326485,"117":-0.12149223685264587,"118":0.010598886758089066,"119":-0.03477058932185173,"120":-0.004979392047971487,"121":-0.10284752398729324,"122":-0.06958860903978348,"123":-0.1542639583349228,"124":-0.05683068931102753,"125":-0.0608547143638134,"126":-0.15930089354515076,"127":0.059025999158620834,"128":-0.11487691104412079,"129":-0.1597326546907425,"130":0.17283743619918823,"131":0.0064767575822770596,"132":0.16376355290412903,"133":-0.12069275975227356,"134":0.1045341044664383,"135":-0.05769635736942291,"136":0.15425722301006317,"137":0.18258510529994965,"138":-0.19957251846790314,"139":-0.0060918075032532215,"140":0.06879261881113052,"141":-0.14639578759670258,"142":0.1900843381881714,"143":-0.06825277209281921,"144":0.06943216174840927,"145":-0.08395840227603912,"146":-0.004651470109820366,"147":0.03977597504854202,"148":0.15387097001075745,"149":-0.15848815441131592,"150":0.10283762216567993,"151":0.06057779863476753,"152":-0.12097414582967758,"153":0.17639558017253876,"154":-0.10623836517333984,"155":-0.1879786103963852,"156":0.16748341917991638,"157":0.05545584112405777,"158":0.010242548771202564,"159":0.012616094201803207,"160":0.10369805246591568,"161":-0.01478656567633152,"162":0.07023139297962189,"163":0.1820787489414215,"164":0.1960948258638382,"165":-0.08569954335689545,"166":0.04937005788087845,"167":-0.033585324883461,"168":0.11998315900564194,"169":0.1770269125699997,"170":0.026473935693502426,"171":-0.17244933545589447,"172":0.18336260318756104,"173":0.128766730427742,"174":-0.15555527806282043,"175":0.1032286211848259,"176":-0.11599317193031311,"177":0.027397604659199715,"178":-0.03412691131234169,"179":0.0000018826921177605982,"180":0.05949126556515694,"181":0.19746527075767517,"182":-0.07426762580871582,"183":-0.15055380761623383,"184":0.19906848669052124,"185":-0.06405607610940933,"186":-0.18237020075321198,"187":0.18310874700546265,"188":-0.08060437440872192,"189":-0.11629593372344971,"190":-0.05808376520872116,"191":-0.03937821090221405,"192":-0.19038532674312592,"193":-0.13792189955711365,"194":0.14705601334571838,"195":-0.06845447421073914,"196":0.035335879772901535,"197":0.06695543974637985,"198":-0.04832638055086136,"199":0.19390812516212463,"200":-0.19204232096672058,"201":0.1684832125902176,"202":0.16632314026355743,"203":-0.11610668897628784,"204":0.04905668646097183,"205":-0.16856910288333893,"206":0.11068903654813766,"207":-0.03945895656943321,"208":0.0899418368935585,"209":0.12249765545129776,"210":-0.021468114107847214,"211":-0.04359985142946243,"212":-0.1853979527950287,"213":0.003770300652831793,"214":-0.15704143047332764,"215":-0.07517066597938538,"216":0.005567304790019989,"217":0.17123837769031525,"218":-0.15000589191913605,"219":0.18539786338806152,"220":-0.1684800088405609,"221":-0.007702942006289959,"222":0.10746720433235168,"223":0.0636046901345253,"224":0.057818926870822906,"225":-0.11864737421274185,"226":-0.08381739258766174,"227":-0.16079996526241302,"228":0.13499867916107178,"229":0.12288203090429306,"230":-0.17050524055957794,"231":-0.005457232240587473,"232":-0.036272332072257996,"233":-0.13877786695957184,"234":0.18157896399497986,"235":-0.10091357678174973,"236":-0.02423011139035225,"237":-0.014599169604480267,"238":0.1754080206155777,"239":0.19011715054512024,"240":0.1129017248749733,"241":0.15803270041942596,"242":-0.07782037556171417,"243":0.06864933669567108,"244":0.1402677595615387,"245":-0.0936891958117485,"246":-0.07684584707021713,"247":0.1695791631937027,"248":0.11375171691179276,"249":-0.05052163824439049,"250":-0.12676087021827698,"251":-0.13937638700008392,"252":0.18090958893299103,"253":0.06733977794647217,"254":-0.031179608777165413,"255":-0.10096001625061035,"256":0.08469413965940475,"257":-0.06716500222682953,"258":-0.1940469741821289,"259":0.10259955376386642,"260":-0.13841162621974945,"261":0.008020228706300259,"262":0.001714808400720358,"263":-0.1631702333688736,"264":-0.09272762387990952,"265":-0.050325535237789154,"266":-0.04038217291235924,"267":-0.09939515590667725,"268":-0.09054778516292572,"269":0.13854026794433594,"270":0.1226881667971611,"271":0.026051927357912064,"272":0.19981907308101654,"273":0.017642874270677567,"274":0.1761104315519333,"275":0.012944409623742104,"276":-0.12709058821201324,"277":-0.008698136545717716,"278":-0.0271128062158823,"279":0.04573094844818115,"280":0.012341520749032497,"281":0.137852281332016,"282":-0.08520588278770447,"283":0.031101560220122337,"284":0.11062756180763245,"285":0.013591568917036057,"286":0.04626607149839401,"287":-0.03658096864819527,"288":0.1798963099718094,"289":0.018794111907482147,"290":-0.10956405103206635,"291":-0.1647050976753235,"292":0.10202813148498535,"293":-0.09967377036809921,"294":0.13013090193271637,"295":-0.19228705763816833,"296":-0.18646278977394104,"297":0.05749247968196869,"298":0.09340663254261017,"299":-0.0984635204076767,"300":-0.1193113923072815,"301":0.051582470536231995,"302":-0.017149023711681366,"303":-0.038075461983680725,"304":-0.1504933387041092,"305":0.12338312715291977,"306":0.06473324447870255,"307":0.1088128387928009,"308":0.036913346499204636,"309":-0.11122281849384308,"310":-0.19083386659622192,"311":-0.020890887826681137,"312":0.09960731118917465,"313":-0.008592952974140644,"314":0.021592963486909866,"315":0.13899551331996918,"316":-0.10499470680952072,"317":0.08688103407621384,"318":-0.19837142527103424,"319":0.15503598749637604,"320":0.05621381849050522,"321":-0.08169636875391006,"322":-0.06566563993692398,"323":-0.013672618195414543,"324":-0.17941345274448395,"325":-0.14566266536712646,"326":-0.17722105979919434,"327":0.15566124022006989,"328":0.10180746018886566,"329":0.16133250296115875,"330":0.1896098554134369,"331":0.02459581196308136,"332":0.14537742733955383,"333":0.09127502143383026,"334":-0.12801726162433624,"335":-0.09270931035280228,"336":-0.15570051968097687,"337":0.16340716183185577,"338":-0.04653236269950867,"339":-0.1629289835691452,"340":-0.07074961066246033,"341":0.10432889312505722}},"8":{"bias":-0.1809379756450653,"weights":{"0":-0.18927523493766785,"1":-0.12542305886745453,"2":-0.005015643313527107,"3":-0.17050327360630035,"4":-0.02267736755311489,"5":-0.14677609503269196,"6":0.0006645118701271713,"7":0.01670890673995018,"8":-0.13780850172042847,"9":-0.023386342450976372,"10":-0.019595520570874214,"11":-0.10486868768930435,"12":0.12628915905952454,"13":0.18950414657592773,"14":-0.12681445479393005,"15":0.15337930619716644,"16":-0.18759334087371826,"17":-0.13948917388916016,"18":0.055675577372312546,"19":0.1561310887336731,"20":0.10686953365802765,"21":-0.19609302282333374,"22":-0.031265322118997574,"23":-0.04981164634227753,"24":0.13817362487316132,"25":0.0416262224316597,"26":0.17205317318439484,"27":0.09999336302280426,"28":-0.027703702449798584,"29":0.028762497007846832,"30":-0.18019890785217285,"31":-0.019323591142892838,"32":0.021558139473199844,"33":0.03802759200334549,"34":-0.019407158717513084,"35":0.03943025693297386,"36":-0.12256722897291183,"37":-0.06246662512421608,"38":0.11551426351070404,"39":-0.020924430340528488,"40":0.18641549348831177,"41":-0.014772274531424046,"42":0.10555578768253326,"43":0.10557510703802109,"44":-0.14998358488082886,"45":-0.055429089814424515,"46":-0.06567133963108063,"47":-0.17809323966503143,"48":0.08381657302379608,"49":0.0757729560136795,"50":0.0554339736700058,"51":0.016404418274760246,"52":-0.08021805435419083,"53":-0.004622376523911953,"54":0.0014372202567756176,"55":-0.09561453759670258,"56":-0.010765183717012405,"57":-0.0037562716752290726,"58":0.01335160993039608,"59":-0.15191011130809784,"60":-0.10753122717142105,"61":0.002759678056463599,"62":-0.019692907109856606,"63":-0.15691189467906952,"64":-0.020057864487171173,"65":0.04531135410070419,"66":-0.05875889211893082,"67":0.09539820998907089,"68":0.06549793481826782,"69":-0.03976156935095787,"70":-0.19398127496242523,"71":0.0617879293859005,"72":-0.08142471313476562,"73":-0.04357602447271347,"74":0.12579913437366486,"75":-0.060361675918102264,"76":0.19393174350261688,"77":-0.0059140753000974655,"78":0.10593129694461823,"79":0.1452031284570694,"80":0.13432008028030396,"81":0.18808726966381073,"82":0.031010234728455544,"83":-0.06742338091135025,"84":-0.07814042270183563,"85":0.011088114231824875,"86":-0.05372735857963562,"87":-0.12521028518676758,"88":0.09838899970054626,"89":0.027342414483428,"90":-0.19592584669589996,"91":-0.1717602014541626,"92":-0.16577133536338806,"93":0.15894760191440582,"94":-0.028901690617203712,"95":0.18705828487873077,"96":0.1156693622469902,"97":0.09987513720989227,"98":-0.13744515180587769,"99":0.14008508622646332,"100":-0.04733159393072128,"101":-0.06283330917358398,"102":0.052068594843149185,"103":-0.09577528387308121,"104":-0.05924436077475548,"105":0.1618710458278656,"106":-0.07007031887769699,"107":-0.06442733108997345,"108":-0.05319393426179886,"109":0.07710874825716019,"110":0.16736698150634766,"111":0.03916582092642784,"112":0.19830191135406494,"113":0.18898533284664154,"114":-0.09410842508077621,"115":0.19584037363529205,"116":-0.03225179389119148,"117":-0.1827630251646042,"118":-0.11345323175191879,"119":0.10223283618688583,"120":0.08769971132278442,"121":0.02067103236913681,"122":-0.14349313080310822,"123":0.17314483225345612,"124":0.007051053456962109,"125":-0.12889966368675232,"126":0.19647924602031708,"127":-0.06162288039922714,"128":-0.11338798701763153,"129":-0.13139918446540833,"130":0.18347038328647614,"131":0.19373083114624023,"132":-0.15643128752708435,"133":-0.024411937221884727,"134":0.08451828360557556,"135":-0.11267738789319992,"136":-0.08207803964614868,"137":0.07342633605003357,"138":-0.09102432429790497,"139":0.11492601037025452,"140":-0.12491370737552643,"141":0.04235322028398514,"142":-0.05802460014820099,"143":0.12655654549598694,"144":-0.17402802407741547,"145":-0.07688844949007034,"146":0.16331924498081207,"147":-0.147363543510437,"148":-0.15903396904468536,"149":-0.09440677613019943,"150":-0.059771109372377396,"151":-0.10155824571847916,"152":0.03128375858068466,"153":-0.049834832549095154,"154":-0.18539443612098694,"155":-0.02255682460963726,"156":0.13009589910507202,"157":-0.09336204826831818,"158":0.1289827972650528,"159":-0.03734397888183594,"160":0.05268416926264763,"161":-0.05216199904680252,"162":0.029498787596821785,"163":0.09010269492864609,"164":0.1596633344888687,"165":-0.15628084540367126,"166":0.19012022018432617,"167":0.05382047966122627,"168":-0.036814916878938675,"169":-0.013481104746460915,"170":-0.0421159528195858,"171":-0.1867658495903015,"172":0.1426994651556015,"173":-0.17058493196964264,"174":-0.05231162905693054,"175":-0.14975158870220184,"176":0.05337304249405861,"177":-0.15649601817131042,"178":0.13780614733695984,"179":-0.13706684112548828,"180":-0.14155669510364532,"181":0.12324398756027222,"182":0.19723521173000336,"183":-0.156101793050766,"184":-0.02262684889137745,"185":0.10673630982637405,"186":-0.04403482377529144,"187":0.035366687923669815,"188":0.02591964788734913,"189":0.03627808392047882,"190":0.14337000250816345,"191":0.036917585879564285,"192":-0.011862030252814293,"193":0.001404973678290844,"194":0.1927987039089203,"195":-0.015194127336144447,"196":0.06141248717904091,"197":-0.15666824579238892,"198":0.06233230233192444,"199":0.14689141511917114,"200":0.1377117931842804,"201":-0.07528022676706314,"202":-0.1042492538690567,"203":-0.12947505712509155,"204":0.10429634153842926,"205":0.0893835723400116,"206":0.14787018299102783,"207":-0.14709295332431793,"208":0.1241079568862915,"209":0.0014963439898565412,"210":-0.15324528515338898,"211":0.1633853167295456,"212":0.022139430046081543,"213":-0.001179118175059557,"214":-0.0023763866629451513,"215":0.09045962244272232,"216":-0.0021480214782059193,"217":0.14083924889564514,"218":0.1348482370376587,"219":-0.021035457029938698,"220":-0.0030626365914940834,"221":0.10704516619443893,"222":0.13179270923137665,"223":-0.1770980805158615,"224":-0.1628018468618393,"225":0.09543292969465256,"226":0.037318576127290726,"227":-0.07280337810516357,"228":0.05272762477397919,"229":0.1833302080631256,"230":-0.14133961498737335,"231":0.111721470952034,"232":-0.08934751898050308,"233":-0.020474817603826523,"234":-0.06616032868623734,"235":-0.15463294088840485,"236":-0.03081177920103073,"237":0.16683657467365265,"238":0.00819416157901287,"239":0.15646417438983917,"240":0.14635953307151794,"241":0.1695837825536728,"242":-0.007910285145044327,"243":0.12099744379520416,"244":-0.07041297107934952,"245":0.18914271891117096,"246":0.054192449897527695,"247":-0.17885592579841614,"248":0.06189151108264923,"249":-0.19372646510601044,"250":0.14714133739471436,"251":-0.02171570435166359,"252":0.13613851368427277,"253":-0.07443566620349884,"254":0.022861672565340996,"255":0.07122533023357391,"256":0.04709538072347641,"257":0.19433459639549255,"258":0.16656826436519623,"259":-0.1829540729522705,"260":-0.09760724753141403,"261":0.19086840748786926,"262":0.08769555389881134,"263":0.1793084442615509,"264":-0.14657814800739288,"265":0.17824125289916992,"266":0.1368454396724701,"267":-0.06438872963190079,"268":-0.011565400287508965,"269":-0.04460490867495537,"270":0.07782352715730667,"271":-0.16959577798843384,"272":-0.08817892521619797,"273":-0.1087261214852333,"274":-0.19585688412189484,"275":-0.1962941586971283,"276":0.09625986963510513,"277":0.050481803715229034,"278":0.001605778350494802,"279":0.17981170117855072,"280":-0.00553345400840044,"281":0.1352412849664688,"282":0.152980774641037,"283":-0.1856788992881775,"284":-0.1442158818244934,"285":-0.027097593992948532,"286":-0.09115538746118546,"287":0.1148562878370285,"288":-0.0141191016882658,"289":-0.0486486479640007,"290":-0.10004090517759323,"291":-0.15385502576828003,"292":-0.07710134983062744,"293":-0.1427714079618454,"294":-0.11328156292438507,"295":-0.08753073960542679,"296":-0.0793575644493103,"297":-0.02648013085126877,"298":-0.030440840870141983,"299":0.16338762640953064,"300":-0.13697974383831024,"301":0.02443043328821659,"302":0.05630369111895561,"303":0.11387418955564499,"304":-0.059896744787693024,"305":-0.1770387887954712,"306":0.1026356965303421,"307":-0.1584806591272354,"308":-0.15046140551567078,"309":0.09507354348897934,"310":-0.06021995469927788,"311":-0.024735279381275177,"312":0.04194296523928642,"313":-0.10551801323890686,"314":0.11486079543828964,"315":-0.17629790306091309,"316":-0.005812943913042545,"317":0.12925980985164642,"318":0.1203109472990036,"319":0.06168230623006821,"320":0.07570113241672516,"321":0.15197362005710602,"322":-0.062352702021598816,"323":0.05731635540723801,"324":-0.1911638230085373,"325":0.028968676924705505,"326":0.023757891729474068,"327":-0.07693794369697571,"328":0.1762862354516983,"329":0.02745886705815792,"330":-0.19699418544769287,"331":0.020674901083111763,"332":0.1023329421877861,"333":0.004211416468024254,"334":-0.0421811044216156,"335":0.13137240707874298,"336":0.16635175049304962,"337":-0.16882607340812683,"338":-0.06624513864517212,"339":-0.1605512946844101,"340":-0.18712285161018372,"341":-0.16366219520568848}},"9":{"bias":-0.16437818109989166,"weights":{"0":0.1637127846479416,"1":0.08296643942594528,"2":-0.10563700646162033,"3":-0.16291314363479614,"4":-0.04453471675515175,"5":-0.0330779030919075,"6":0.013991618528962135,"7":-0.1809948980808258,"8":-0.0705997571349144,"9":-0.08616466075181961,"10":-0.13571280241012573,"11":-0.12115544080734253,"12":-0.10267996042966843,"13":0.11775030195713043,"14":0.08053785562515259,"15":-0.14084218442440033,"16":-0.18114173412322998,"17":0.12359356135129929,"18":0.15596580505371094,"19":-0.1892302930355072,"20":-0.17405863106250763,"21":-0.1664193570613861,"22":0.05829194188117981,"23":-0.09447617828845978,"24":0.025247452780604362,"25":-0.15599699318408966,"26":0.0014337563188746572,"27":-0.1579468995332718,"28":0.05426551029086113,"29":-0.169483482837677,"30":0.16912175714969635,"31":0.012486575171351433,"32":0.15079796314239502,"33":0.007534260395914316,"34":-0.15800411999225616,"35":-0.06086155027151108,"36":0.07947888225317001,"37":-0.09231368452310562,"38":-0.17279882729053497,"39":0.06785450130701065,"40":0.11956827342510223,"41":0.15672853589057922,"42":-0.004144843202084303,"43":0.15426389873027802,"44":-0.18310944736003876,"45":0.045735809952020645,"46":0.08992696553468704,"47":-0.08660800755023956,"48":0.07712308317422867,"49":-0.021219084039330482,"50":-0.07059352099895477,"51":0.08895871788263321,"52":0.16720576584339142,"53":-0.10853946954011917,"54":-0.021616237238049507,"55":-0.09596242755651474,"56":-0.11078052222728729,"57":0.025010056793689728,"58":-0.1690051257610321,"59":-0.1041986420750618,"60":-0.1885167509317398,"61":-0.19814099371433258,"62":-0.10628189146518707,"63":-0.19622310996055603,"64":0.14961566030979156,"65":0.1911408007144928,"66":-0.06640365719795227,"67":0.035990867763757706,"68":0.01200496032834053,"69":-0.1627381294965744,"70":0.09782467782497406,"71":0.1267918348312378,"72":-0.07733945548534393,"73":0.003491407260298729,"74":0.0487682968378067,"75":-0.19684934616088867,"76":0.042505789548158646,"77":-0.1375131756067276,"78":-0.13077418506145477,"79":0.016245484352111816,"80":-0.0447087399661541,"81":-0.15241532027721405,"82":0.17887699604034424,"83":0.08907023817300797,"84":-0.13107866048812866,"85":0.05993734300136566,"86":-0.01268382091075182,"87":0.1286264955997467,"88":-0.11816069483757019,"89":0.038719870150089264,"90":0.08518243581056595,"91":-0.0009583322098478675,"92":-0.16836005449295044,"93":-0.1627916544675827,"94":0.16230058670043945,"95":-0.12095223367214203,"96":-0.16027680039405823,"97":-0.17682570219039917,"98":0.10669726133346558,"99":0.08017866313457489,"100":0.15321576595306396,"101":-0.16686461865901947,"102":0.1441795974969864,"103":-0.1609729379415512,"104":-0.0030995020642876625,"105":-0.14720281958580017,"106":0.0075362613424658775,"107":-0.0508054755628109,"108":0.1195884719491005,"109":-0.16231949627399445,"110":0.07782432436943054,"111":0.05243039131164551,"112":-0.09040773659944534,"113":-0.18662329018115997,"114":0.13771679997444153,"115":-0.021505897864699364,"116":0.002454145811498165,"117":-0.11876894533634186,"118":-0.10906369239091873,"119":-0.09284957498311996,"120":0.02880840003490448,"121":-0.035606108605861664,"122":0.0973866656422615,"123":0.033980030566453934,"124":-0.04419983550906181,"125":0.19323225319385529,"126":-0.014368012547492981,"127":0.006121447309851646,"128":-0.10730400681495667,"129":-0.15132062137126923,"130":0.07836468517780304,"131":0.1469837874174118,"132":0.022732442244887352,"133":0.013181488029658794,"134":-0.030437497422099113,"135":-0.03820006921887398,"136":0.19196577370166779,"137":0.14147326350212097,"138":0.14316821098327637,"139":-0.0032635934185236692,"140":-0.011777454987168312,"141":-0.17552165687084198,"142":-0.046214912086725235,"143":-0.19716203212738037,"144":0.16295583546161652,"145":0.024622173979878426,"146":0.02432832308113575,"147":-0.03728416562080383,"148":-0.13657361268997192,"149":-0.1474859118461609,"150":-0.04949238896369934,"151":-0.043501704931259155,"152":0.1424786001443863,"153":-0.06461110711097717,"154":0.12505142390727997,"155":0.1650155782699585,"156":0.1293862760066986,"157":-0.09632088989019394,"158":0.18572251498699188,"159":-0.1733846366405487,"160":-0.14476896822452545,"161":-0.12534770369529724,"162":0.07557056844234467,"163":0.060452044010162354,"164":0.16762351989746094,"165":0.05086450278759003,"166":0.0005452058394439518,"167":0.0379573218524456,"168":-0.1635579615831375,"169":-0.09927688539028168,"170":-0.05029702186584473,"171":-0.04343078285455704,"172":-0.028878482058644295,"173":-0.15430249273777008,"174":-0.10338786244392395,"175":0.19984501600265503,"176":0.06141645461320877,"177":0.058802030980587006,"178":-0.14760126173496246,"179":-0.10069342702627182,"180":0.17898841202259064,"181":-0.03613440319895744,"182":0.1922442615032196,"183":0.19757391512393951,"184":0.1624453067779541,"185":-0.11528090387582779,"186":0.04198192432522774,"187":-0.0927509218454361,"188":0.11884575337171555,"189":-0.05705009400844574,"190":-0.074585922062397,"191":0.1763046681880951,"192":0.036024533212184906,"193":-0.030309626832604408,"194":-0.17943334579467773,"195":0.15046274662017822,"196":-0.1777162104845047,"197":-0.19488148391246796,"198":0.007065798621624708,"199":-0.012147283181548119,"200":-0.1653916835784912,"201":0.07795757800340652,"202":-0.04324222728610039,"203":0.06813085079193115,"204":0.11174874752759933,"205":0.08251680433750153,"206":-0.0327695794403553,"207":-0.1254875659942627,"208":0.04105352610349655,"209":-0.03700938820838928,"210":-0.16733728349208832,"211":0.10780805349349976,"212":-0.18369045853614807,"213":-0.036513105034828186,"214":-0.1981325000524521,"215":0.1900419443845749,"216":-0.16896939277648926,"217":-0.09607373923063278,"218":-0.056631799787282944,"219":0.1939147412776947,"220":0.14225971698760986,"221":0.15197867155075073,"222":-0.06210086867213249,"223":-0.08529596775770187,"224":-0.04410279169678688,"225":0.12718740105628967,"226":-0.13474875688552856,"227":0.12637454271316528,"228":0.1734725534915924,"229":-0.10453300178050995,"230":-0.0000360641824954655,"231":0.10293419659137726,"232":-0.04122043401002884,"233":0.15087229013442993,"234":-0.058509260416030884,"235":0.19928684830665588,"236":0.08678236603736877,"237":-0.14504992961883545,"238":-0.17060057818889618,"239":0.18249234557151794,"240":0.11248694360256195,"241":-0.19041217863559723,"242":-0.09778477996587753,"243":-0.10469724982976913,"244":-0.17241017520427704,"245":0.01989653706550598,"246":0.06272546201944351,"247":-0.08074052631855011,"248":-0.149497851729393,"249":0.1859995722770691,"250":-0.15930527448654175,"251":0.14347057044506073,"252":-0.14635229110717773,"253":0.08590933680534363,"254":-0.07601170986890793,"255":-0.16824078559875488,"256":0.034763041883707047,"257":-0.00783858448266983,"258":0.16254286468029022,"259":-0.036180734634399414,"260":0.09025450795888901,"261":-0.02854696661233902,"262":0.14350643754005432,"263":0.01225419994443655,"264":-0.18006795644760132,"265":0.058265313506126404,"266":-0.04959984868764877,"267":0.00802832841873169,"268":0.09917399287223816,"269":0.07713911682367325,"270":0.19109739363193512,"271":-0.14721134305000305,"272":-0.04155651479959488,"273":-0.018382970243692398,"274":-0.027272487059235573,"275":0.019702987745404243,"276":-0.1621626913547516,"277":-0.04832005873322487,"278":-0.024342868477106094,"279":0.1379013955593109,"280":-0.15856720507144928,"281":0.18402816355228424,"282":-0.18330417573451996,"283":0.1345149129629135,"284":-0.04311410337686539,"285":0.010875235311686993,"286":0.02688896469771862,"287":-0.08725131303071976,"288":-0.03463050350546837,"289":0.12028388679027557,"290":-0.12128069251775742,"291":0.040001172572374344,"292":-0.030226431787014008,"293":0.14086347818374634,"294":-0.16235457360744476,"295":-0.04913851618766785,"296":0.1899433434009552,"297":-0.1817912757396698,"298":0.1861201822757721,"299":-0.11195636540651321,"300":0.10033698379993439,"301":-0.1341283917427063,"302":-0.14480234682559967,"303":0.19089150428771973,"304":0.11727576702833176,"305":-0.01845606416463852,"306":0.05859847739338875,"307":-0.14444641768932343,"308":-0.1926296502351761,"309":0.17850102484226227,"310":0.18985071778297424,"311":-0.03254922106862068,"312":0.10416022688150406,"313":0.16231971979141235,"314":-0.12421274930238724,"315":-0.018566923215985298,"316":-0.12404587119817734,"317":0.17480924725532532,"318":-0.119054414331913,"319":0.00021220967755652964,"320":0.053835298866033554,"321":0.07151773571968079,"322":0.1714717298746109,"323":0.08387336879968643,"324":0.15938714146614075,"325":-0.16195839643478394,"326":-0.11961637437343597,"327":-0.04243725165724754,"328":-0.17342910170555115,"329":0.04563750699162483,"330":-0.07565294206142426,"331":-0.08087398111820221,"332":0.12298983335494995,"333":-0.06476026028394699,"334":-0.06468759477138519,"335":0.1964905709028244,"336":0.16683480143547058,"337":-0.007742146495729685,"338":-0.010608343407511711,"339":-0.004831099882721901,"340":-0.17105770111083984,"341":0.07956275343894958}},"10":{"bias":0.015965914353728294,"weights":{"0":0.11874358355998993,"1":0.17597977817058563,"2":-0.09364664554595947,"3":-0.14662916958332062,"4":0.015651365742087364,"5":-0.14515210688114166,"6":0.0602513812482357,"7":0.03345513716340065,"8":0.08648288249969482,"9":0.055015064775943756,"10":0.16452789306640625,"11":0.167136549949646,"12":0.181325763463974,"13":0.05477336421608925,"14":-0.048651158809661865,"15":-0.17387337982654572,"16":-0.12348459661006927,"17":-0.090955950319767,"18":-0.06328324973583221,"19":0.0899808257818222,"20":0.04131767526268959,"21":0.023871835321187973,"22":0.14401768147945404,"23":0.13757799565792084,"24":-0.03721335157752037,"25":0.025193458423018456,"26":0.1723484992980957,"27":0.11090859025716782,"28":-0.13564567267894745,"29":-0.024351805448532104,"30":0.07658037543296814,"31":-0.14126558601856232,"32":0.06741210073232651,"33":-0.06752172112464905,"34":0.03544613718986511,"35":0.11821050941944122,"36":0.08100206404924393,"37":0.041631653904914856,"38":0.1408451944589615,"39":-0.01609734445810318,"40":-0.18844400346279144,"41":-0.06412958353757858,"42":0.04127239063382149,"43":0.19002395868301392,"44":0.13514111936092377,"45":0.11936964094638824,"46":0.11190290004014969,"47":0.19252905249595642,"48":-0.07324955612421036,"49":-0.18886619806289673,"50":0.08055200427770615,"51":0.012682878412306309,"52":0.03745988383889198,"53":0.08883073925971985,"54":0.18744128942489624,"55":0.07351893931627274,"56":0.008623975329101086,"57":0.19163264334201813,"58":0.12826603651046753,"59":-0.18508777022361755,"60":0.0554366335272789,"61":0.04567214101552963,"62":0.11050710827112198,"63":0.1548326313495636,"64":-0.11261586844921112,"65":-0.17770329117774963,"66":-0.09720819443464279,"67":-0.03996562212705612,"68":0.06536634266376495,"69":-0.1791469156742096,"70":0.17110110819339752,"71":0.09156138449907303,"72":-0.04376720264554024,"73":0.1948300451040268,"74":0.047530412673950195,"75":-0.018111415207386017,"76":-0.0876258984208107,"77":0.15284909307956696,"78":-0.11244551837444305,"79":0.09025608748197556,"80":-0.12784458696842194,"81":0.08689890801906586,"82":-0.0640239343047142,"83":0.0539495125412941,"84":0.179936021566391,"85":0.12955014407634735,"86":0.00612915214151144,"87":0.1898103505373001,"88":-0.15410445630550385,"89":-0.17067685723304749,"90":-0.14910854399204254,"91":0.17182320356369019,"92":0.0323614776134491,"93":-0.07515763491392136,"94":-0.16392670571804047,"95":0.16672495007514954,"96":-0.007955335080623627,"97":0.021167093887925148,"98":0.14763647317886353,"99":-0.14774110913276672,"100":0.1567259430885315,"101":0.04619426652789116,"102":0.1474103331565857,"103":-0.09024658054113388,"104":0.12985855340957642,"105":-0.07824664562940598,"106":-0.1609853059053421,"107":0.0733121857047081,"108":-0.05567445978522301,"109":0.11132041364908218,"110":-0.19159643352031708,"111":0.061839934438467026,"112":-0.000007922006261651404,"113":0.011817807331681252,"114":0.11355376988649368,"115":0.04350356385111809,"116":-0.12339475750923157,"117":0.05827093496918678,"118":0.16536271572113037,"119":-0.05855412036180496,"120":0.0664392039179802,"121":0.16830149292945862,"122":-0.1923181414604187,"123":0.004747077357023954,"124":0.12838713824748993,"125":0.05949521064758301,"126":0.1049671545624733,"127":-0.19670632481575012,"128":-0.021692242473363876,"129":-0.16517384350299835,"130":-0.12392066419124603,"131":-0.0736309289932251,"132":0.16576159000396729,"133":0.045602232217788696,"134":-0.07070183008909225,"135":0.041658226400613785,"136":0.05494830384850502,"137":0.11976999789476395,"138":-0.05459855869412422,"139":-0.04086170345544815,"140":-0.06832078099250793,"141":-0.09198401123285294,"142":-0.014524774625897408,"143":-0.015425954945385456,"144":-0.11374763399362564,"145":0.04244446009397507,"146":-0.11137931048870087,"147":0.15769058465957642,"148":0.01163517776876688,"149":0.10443070530891418,"150":-0.14282935857772827,"151":-0.024450799450278282,"152":0.0944090336561203,"153":0.09751980006694794,"154":-0.15452231466770172,"155":0.0025944297667592764,"156":-0.04596657678484917,"157":-0.10563626885414124,"158":0.043086469173431396,"159":-0.0007491662399843335,"160":-0.09253117442131042,"161":-0.11792092025279999,"162":0.13157370686531067,"163":-0.10584302246570587,"164":0.1095409244298935,"165":-0.04069198668003082,"166":0.07866588234901428,"167":-0.15182586014270782,"168":0.11835772544145584,"169":-0.03452583774924278,"170":0.027903757989406586,"171":0.11930481344461441,"172":-0.15721067786216736,"173":0.058859895914793015,"174":0.12979114055633545,"175":0.09601272642612457,"176":-0.1851230412721634,"177":-0.11150619387626648,"178":0.05896737799048424,"179":-0.028415540233254433,"180":0.11077117919921875,"181":0.07436686009168625,"182":-0.19271938502788544,"183":0.13547737896442413,"184":-0.19053632020950317,"185":-0.05187761411070824,"186":0.13770624995231628,"187":0.11477610468864441,"188":0.1946393996477127,"189":-0.1422245055437088,"190":-0.1747601181268692,"191":0.10172371566295624,"192":0.0635901689529419,"193":0.007758852560073137,"194":0.05280587822198868,"195":0.042149532586336136,"196":-0.05288398638367653,"197":-0.08283836394548416,"198":-0.09881790727376938,"199":-0.05704530328512192,"200":-0.17437238991260529,"201":0.15540488064289093,"202":-0.1919333040714264,"203":0.08103954046964645,"204":0.12861225008964539,"205":-0.03746318817138672,"206":-0.023522960022091866,"207":-0.05497640371322632,"208":0.12590332329273224,"209":0.03169003129005432,"210":0.16992992162704468,"211":0.13428515195846558,"212":0.054293375462293625,"213":0.18568460643291473,"214":-0.08104295283555984,"215":-0.09212527424097061,"216":-0.1513143926858902,"217":0.03538326174020767,"218":0.17467853426933289,"219":0.027910085394978523,"220":-0.00844192411750555,"221":-0.05245791748166084,"222":-0.07693923264741898,"223":0.06793888658285141,"224":0.15342235565185547,"225":-0.02770918980240822,"226":0.14704710245132446,"227":-0.011160383932292461,"228":0.14660120010375977,"229":0.11473449319601059,"230":0.051366887986660004,"231":-0.19467079639434814,"232":0.07702641934156418,"233":0.0029080486856400967,"234":0.14696745574474335,"235":0.0021851954516023397,"236":-0.011277715675532818,"237":-0.17335939407348633,"238":0.10511644929647446,"239":-0.12473135441541672,"240":-0.004849740769714117,"241":0.03401936590671539,"242":0.11306434124708176,"243":0.14088766276836395,"244":0.04176633432507515,"245":-0.11470206081867218,"246":-0.18623864650726318,"247":0.02748797833919525,"248":0.07119141519069672,"249":0.17925485968589783,"250":-0.18453596532344818,"251":-0.16079169511795044,"252":0.09841164201498032,"253":0.043598566204309464,"254":0.12028922885656357,"255":0.09678787738084793,"256":0.005553863011300564,"257":-0.1226123794913292,"258":0.019988881424069405,"259":-0.08855915069580078,"260":0.1310024857521057,"261":0.017504602670669556,"262":-0.12913735210895538,"263":0.027121173217892647,"264":0.10694067180156708,